// Auto generated data file
// Copyright (c) 2018-2021, Shiqi Yu, all rights reserved.
#include "facedetectcnn.h" 

float f0_weight[16* 32 * 1 * 1] = {-0.000341,0.00212,0.000187,0.000571,0.00127,0.000541,-0.000704,-0.00345,-0.000151,0.00134,0.00439,0.002,0.000526,0.00153,0.00101,-0.00339,-0.00635,-0.00225,0.000279,0.00361,0.000981,0.000415,0.0016,0.000701,-0.00175,-0.00447,-0.000831,0,0,0,0,0,-0.000861,0.000612,0.000316,-0.00111,-0.00148,0.000611,-0.00211,0.00117,0.0036,-0.00504,-0.0025,-0.00267,-0.00136,-0.00108,0.00112,0.000794,0.00479,0.00736,-0.00595,-0.00145,-0.00111,-0.00109,-0.000341,0.00107,-0.000598,0.00284,0.00356,0,0,0,0,0,0.00116,0.00255,0.000971,-0.002,-0.00272,-0.00106,0.000526,0.000133,0.000777,0.00218,0.00468,0.00301,-0.00384,-0.00411,-0.00215,-0.00025,-0.000735,0.000363,0.00215,0.00459,0.00187,-0.00255,-0.0026,-0.00158,-5.4e-05,-0.000169,-3.25e-05,0,0,0,0,0,0.000359,-9.9e-05,-0.000269,0.000614,-0.000238,-0.000705,0.000459,-0.000264,-0.000601,-0.000533,-0.00128,-0.00123,-0.000311,-0.00142,-0.00184,0.000113,-0.000682,-0.000971,-0.000218,-1.72e-05,0.00028,1.1e-05,-0.000252,-0.00047,-3.52e-05,-0.000448,-0.000833,0,0,0,0,0,-0.000911,0.000164,-0.000355,0.00046,0.00155,0.000497,-3.43e-05,0.000448,0.000309,0.000842,0.00169,0.00127,0.00134,0.00215,0.00128,0.000677,0.000907,0.00102,-0.000694,-0.00127,-0.000883,-0.00131,-0.00189,-0.00187,-0.00111,-0.00223,-0.00124,0,0,0,0,0,-3.21e-10,-2.05e-10,-1.63e-10,-1.83e-10,-2.26e-10,-2.61e-10,-2.04e-10,1.38e-12,-1.3e-10,-1.59e-10,-3.51e-10,-1.31e-10,-1.35e-10,-3.36e-10,-2.82e-10,-1.73e-10,-1.71e-10,-6.24e-11,-6.53e-11,4.44e-11,8.43e-11,-1.66e-11,-1.82e-10,3.97e-11,1.96e-10,1.26e-10,1.54e-10,0,0,0,0,0,-0.000407,-0.00226,0.000426,-0.000837,-0.000625,-0.000818,0.000758,0.00305,0.000637,-0.00218,-0.00403,-0.000375,-0.0018,-0.00109,-0.000812,0.00186,0.00491,0.00232,-0.00122,-0.00277,6.98e-05,-0.00174,-0.000623,-0.001,0.00149,0.00494,0.00198,0,0,0,0,0,0.000386,-0.00447,0.00324,0.00256,-0.00782,0.0048,0.00126,-0.00309,0.0034,0.00216,-0.00461,0.00481,0.00351,-0.0092,0.0055,0.000471,-0.00568,0.00283,0.00196,-0.00632,0.00059,0.00571,-0.00803,0.00423,0.00328,-0.00412,0.00221,0,0,0,0,0,9.65e-05,0.000698,-0.000413,-0.000439,-0.000916,2.93e-05,0.000455,-0.0006,0.00105,-8.94e-05,0.000466,-0.000316,-0.00151,-0.0022,-0.00106,-0.000679,-0.00201,-0.000355,-0.000249,0.00056,-0.000568,-0.000661,-0.000438,0.000713,-2.01e-05,-0.000246,0.00162,0,0,0,0,0,0.0003,0.00135,-0.0016,0.00196,4.65e-05,-0.00449,0.000675,0.000686,0.000931,0.00294,0.00189,-0.0033,0.0046,-0.000294,-0.00762,0.00274,1.84e-06,-0.00195,0.000617,0.000911,-0.00218,0.00364,0.000224,-0.00503,0.00161,0.000293,0.000277,0,0,0,0,0,0.000414,0.000195,0.000441,0.000303,0.000121,0.000212,0.000221,4.51e-05,0.000327,0.000974,0.000883,0.000817,0.000835,0.000857,0.000723,0.00017,0.000215,0.000413,-0.000958,-0.00103,-0.0012,-0.000306,-0.000332,-0.000579,-6.68e-05,-1.74e-05,3.97e-05,0,0,0,0,0,-0.00244,0.0019,0.00237,-0.00186,-0.000981,7.64e-05,0.000196,-0.00171,0.000104,0.00104,0.00672,0.00714,-0.00186,-0.000392,4.01e-05,-0.0011,-0.0029,-0.0022,-0.00275,0.0044,0.00328,-0.00362,-0.000411,-0.00157,-0.00152,-0.00125,-0.00233,0,0,0,0,0,-0.000275,-0.000162,-0.000342,-0.000449,-0.000285,-0.00016,-0.000636,-0.000216,-0.000759,0.000566,0.000862,0.000516,0.00055,0.000767,0.000778,0.000729,0.00112,0.000349,-0.000273,-0.000851,-0.000366,-0.00127,-0.00206,-0.00115,-2.67e-06,-0.000573,-0.000607,0,0,0,0,0,0.0007,0.000832,0.00125,0.000674,0.00135,0.00111,0.000992,0.00168,0.000676,-0.00162,-0.00191,-0.000951,-0.0023,-0.00207,-0.00181,-0.00179,-0.00155,-0.00211,0.000518,0.00052,0.000323,0.000425,0.00133,0.0007,-0.000181,0.000827,-0.00025,0,0,0,0,0,-0.00178,0.0011,-0.000242,-0.00333,0.000798,0.00231,0.000243,0.000255,0.00113,-0.00371,0.000943,0.00151,-0.00602,0.000609,0.00428,-0.00178,0.000444,0.00292,-0.00225,0.000358,0.000573,-0.0043,0.00037,0.0038,-0.00036,-0.000113,0.00228,0,0,0,0,0,-0.00026,-5.25e-05,-0.000204,-0.000658,-0.000403,-0.000601,0.000351,0.000286,0.000178,0.00118,0.00107,0.00116,0.000206,0.00026,0.000462,0.000455,0.000307,0.000773,0.00139,0.000577,0.00127,-3.55e-05,-0.000696,-3.04e-05,0.000753,-0.000188,0.000596,0,0,0,0,0};
float f0_bias[16] = {0.218,-0.395,0.22,0.421,0.331,-2.68e-06,0.241,-0.0127,0.55,0.269,0.336,-0.204,1.33,0.853,0.314,-1.4};
float f1_1_weight[16*16*1*1] = {-0.144,0.225,-0.0501,0.249,-0.0498,9.18e-08,-0.243,-0.0744,-0.238,0.181,-0.0353,0.198,-0.0709,-0.00809,-0.299,-0.0262,0.446,-0.0631,0.323,-0.119,0.0255,-1.32e-07,-0.329,0.0635,0.156,-0.517,-0.041,-0.245,0.0266,-0.00879,0.304,0.404,-0.233,-0.14,0.279,0.34,0.124,-3.99e-07,0.214,0.072,0.312,0.115,-0.194,-0.0756,0.177,0.0111,0.0504,-0.0841,-0.0503,-0.00207,0.0325,0.287,0.756,2.46e-07,0.0223,-0.0146,0.307,0.03,-0.0688,-0.0167,-0.479,0.624,-0.0364,0.12,-0.146,-0.0509,-0.0107,-0.463,-0.136,6.54e-07,-0.00351,-0.0375,-0.34,-0.0903,0.393,0.116,-0.736,-0.168,-0.00906,0.217,0.327,0.226,0.162,-0.0574,0.0654,4.51e-07,-0.295,0.28,0.102,0.353,-0.076,-0.0757,-0.0715,0.0174,-0.548,0.437,-0.303,-0.652,-0.24,-0.0458,0.0896,-5.05e-08,0.529,0.274,0.0171,0.226,0.0569,0.397,-0.0502,-0.0668,0.231,0.0741,-0.0254,-0.109,0.0331,-0.00567,-0.0496,2.49e-07,-0.0331,0.192,0.0111,-0.524,0.024,-0.352,-0.0201,0.0173,0.396,-0.134,0.0125,0.136,0.105,-0.514,0.0981,9.93e-08,-0.159,-0.099,-0.402,-0.0621,0.338,-0.0154,-0.589,0.00763,-0.0657,-0.00854,-0.358,-0.412,-0.26,0.0561,-0.0441,1.88e-07,0.419,0.00591,0.0268,-0.236,0.0205,0.167,-0.101,-0.0464,0.362,0.25,-0.0543,0.0445,-0.0343,-0.0876,-0.378,1.32e-06,-0.0996,-0.0843,0.0314,-0.0633,-0.949,0.0141,-0.587,-0.302,-0.0445,0.249,0.312,-0.0315,0.183,-0.278,0.0534,3.49e-07,-0.141,-0.195,0.158,-0.142,-0.00967,-0.274,0.00689,-0.0382,0.283,-0.0592,0.121,0.295,0.145,0.191,0.0146,-1.72e-07,-0.332,0.11,0.00674,0.149,-0.0367,-0.0424,0.0406,-0.0526,-0.245,-0.137,-0.0692,-0.0628,-0.589,0.0662,0.0711,1.22e-07,0.021,0.013,-0.0409,-0.00414,-0.111,0.221,-0.0832,-0.00542,0.0581,0.137,-0.0253,-0.0471,0.00599,0.225,-0.117,1.57e-06,0.0154,0.174,0.271,0.0974,0.233,0.0308,-0.369,0.871,0.0426,0.136,-0.465,-0.246,-0.302,0.0328,-0.00221,1.38e-06,0.378,0.00964,0.019,0.333,0.00286,0.0691,-0.146,0.0111,-0.387,0.163};
float f1_1_bias[16] = {0.0543,0.0935,0.338,0.0177,0.238,0.0932,0.0496,-0.246,-0.138,0.157,0.222,0.27,-0.178,0.115,-0.229,0.171};
float f1_2_weight[16*1*3*3] = {-0.737,0.0933,-0.0348,0.238,-0.681,-0.0631,0.147,-0.065,-0.0197,-0.156,0.00176,-0.458,0.134,-0.0384,-0.0226,0.199,0.415,-0.0318,0.423,-0.576,-0.736,-0.181,0.0445,0.464,0.0378,0.143,0.13,0.231,0.489,0.0624,-0.324,0.192,0.803,-0.0995,0.123,0.146,-0.834,0.167,0.123,0.072,-0.0518,0.293,-0.0524,0.217,-0.338,0.156,0.0394,-0.169,-1.04,0.625,-0.674,-0.28,-0.428,-0.212,-0.122,-0.338,0.0375,0.564,0.244,-0.158,0.197,-0.313,-0.232,0.0642,0.146,0.146,-2.11,1.95,-0.214,1,-0.288,1.3,-0.369,1.08,0.735,-1.52,1.68,-1.4,-0.626,1.15,0.657,-0.0494,-1.22,-0.128,-0.485,0.12,-0.218,-0.334,-0.216,0.399,0.274,1.26,-1.8,-0.704,-0.327,0.389,-0.748,-0.245,0.662,0.372,0.832,0.29,-0.495,-0.0316,-0.18,0.18,-0.142,-0.129,0.762,0.551,-0.0561,-0.205,-0.066,0.733,1.68,0.0632,1.37,0.363,-0.987,0.37,-0.352,-0.489,0.56,-1.02,-0.954,1.44,-0.228,-0.504,0.559,0.363,1.11,0.3,1.17,0.089,-0.689,0.0724,-0.215,-0.462,-0.169,0.808,-0.417,0.859,-0.0727,0.204};
float f1_2_bias[16] = {-0.0139,-0.287,-0.0108,-0.246,0.109,0.0765,0.426,0.441,0.116,-0.048,2.29,0.321,-0.0587,0.115,0.715,0.181};

float f2_1_weight[16*16*1*1] = {0.122,0.268,0.322,0.198,0.315,0.257,0.0259,0.228,0.0835,0.392,-0.0264,0.0884,0.0947,0.296,-0.214,0.143,-0.059,0.347,0.00113,-0.0559,-0.167,-0.108,0.239,-0.065,-0.166,0.224,0.0424,-0.443,0.027,-0.0956,0.0464,-0.552,0.0521,-0.00604,-0.145,-0.0226,-0.988,0.128,0.00533,0.22,0.0163,-0.213,0.064,0.106,0.155,-0.125,-0.0869,-0.0896,0.00787,-0.0221,-0.00162,0.0292,-0.055,0.0276,-0.0821,0.0364,0.174,-0.0154,1.02,0.0227,-0.00789,-0.00509,-0.101,0.033,-0.125,0.526,-0.102,0.177,0.0326,-0.476,-0.258,-0.243,0.0438,-0.448,0.107,0.24,-0.547,-0.0411,-0.107,0.488,0.00269,-0.122,-0.404,-0.0475,-0.0687,-0.165,-0.325,-0.0392,0.103,-0.145,-0.0407,0.023,-0.118,-0.221,0.0711,-0.0317,-0.126,-0.536,-0.101,0.159,0.0104,0.452,-0.156,-0.101,-0.0539,0.373,0.091,-0.433,0.351,-0.125,-0.118,-0.607,-0.753,-0.0351,0.272,-0.0469,0.32,-0.256,0.181,-0.588,-0.0775,0.264,0.0837,-0.423,-0.222,0.268,-0.0123,0.0235,0.00114,0.0625,0.0246,0.431,0.0562,0.0943,-0.055,0.0518,-0.158,0.0246,0.317,0.01,0.0497,0.0209,-0.643,0.0464,-0.309,-0.0155,0.601,0.0794,-0.0182,-0.0941,0.477,-0.246,-0.243,0.0319,-0.0606,-0.153,-0.00397,0.571,0.0917,0.0565,-0.00798,0.0643,-0.0284,0.159,0.00752,0.0717,-0.0546,-0.0266,0.153,0.0176,1.04,-0.0186,0.0136,-0.0275,0.0257,0.0115,-0.169,-0.128,-0.0173,0.0653,0.34,-0.297,-0.172,0.302,0.459,0.35,-0.0874,-0.202,0.404,0.0281,-0.0228,-0.193,0.0444,-0.149,0.0679,-0.938,-0.108,-0.205,0.112,0.0593,0.0616,0.00907,-0.0593,0.055,-0.0287,0.122,-0.855,-0.00641,-0.102,0.197,0.0421,0.15,-0.368,0.0412,-0.539,0.203,-0.0379,-0.301,0.118,0.165,0.0978,0.144,0.128,-0.00815,-0.00244,-0.0189,0.0232,0.0669,0.0937,0.0609,0.0204,-0.0232,0.958,-0.0682,-0.148,0.0148,0.0345,0.0754,-0.0391,0.0137,-0.0246,-0.00497,-0.00942,0.0539,-0.0012,0.000969,-4.04e-05,-0.00478,0.928,0.00986,-0.246,0.0538,-0.00373,0.0311,-0.0462,-0.0349};
float f2_1_bias[16] = {-0.21,-0.0999,-0.0232,-0.523,-0.0239,0.262,-0.0814,0.0817,0.128,0.0276,-0.666,-0.089,0.0136,0.155,-0.822,-0.615};
float f2_2_weight[16*1*3*3] = {0.0266,0.0836,0.0937,-0.0281,0.0557,0.291,0.134,0.0317,0.113,0.0294,-0.0253,-0.0427,0.000638,0.0585,0.291,-0.367,-0.00621,0.133,-0.104,-1.22,0.168,0.667,0.142,0.129,1.56,-0.161,0.503,-0.559,0.114,-1.15,0.642,1.18,0.023,3.38e-05,0.0914,-0.0236,0.0957,-0.0739,0.0381,0.0193,0.316,-0.0422,-0.0218,0.0572,0.0321,-0.0199,-0.101,0.116,-0.176,-0.0552,-0.0169,0.0408,0.0624,0.44,0.00317,0.0353,0.011,0.0563,0.17,-0.156,0.0231,0.0352,0.329,-1.57,0.782,0.898,1.03,0.0327,0.563,-0.438,0.67,0.786,-0.333,-0.775,-1.33,-0.131,0.667,0.131,-1.63,0.709,0.0314,0.00629,0.0508,-0.133,0.0405,-0.327,0.0429,0.1,-0.202,0.0353,0.125,0.0789,-0.014,0.00312,0.175,0.333,-0.00827,0.0186,0.0117,0.00508,0.102,0.0427,-0.00251,0.00657,-0.129,-0.0121,-0.0554,-0.0653,-0.00473,-0.0406,-0.0283,-0.228,-0.0538,-0.0648,0.109,0.769,0.0294,-0.0588,-0.00417,0.00961,-0.847,-0.0228,0.0159,-0.0372,0.00809,0.0527,-0.00917,-0.225,0.0132,0.0304,0.0263,0.0889,0.00986,-0.206,0.097,-0.0206,-0.344,-0.0811,-0.0699,-0.0209,0.0397,-0.0604,-0.126,0.0423};
float f2_2_bias[16] = {0.213,0.708,0.555,0.464,0.69,0.455,0.937,0.538,0.0755,0.606,0.68,0.792,1.22,0.364,0.652,0.167};

float f3_1_weight[64*16*1*1] = {0.455,-0.186,-0.0799,0.0638,-0.245,-0.308,-0.104,-0.216,0.0619,-0.141,0.0471,0.0743,-0.0327,-0.041,-0.0147,0.0497,0.12,0.0755,0.0483,-0.488,0.0727,0.0249,0.1,0.0163,0.403,-0.0718,0.451,0.107,-0.229,-0.0485,-0.0171,-0.0622,0.303,-0.0161,-0.143,-0.0108,0.0455,0.106,-0.138,-0.237,-0.0594,-0.08,0.298,-0.0909,-0.0729,-0.104,-0.353,0.00355,-0.0849,-0.284,-0.00145,-0.0134,0.531,-0.254,-0.589,0.0373,-0.00991,-0.1,-0.00629,0.0526,0.0383,-0.0184,0.183,-0.0541,-0.12,0.134,-0.14,0.296,-0.0255,-0.0498,-0.000932,0.0653,0.714,0.141,-0.115,0.0574,-0.0204,-0.0892,-0.269,-0.0344,-0.0943,-0.185,-0.145,0.0812,0.13,0.0917,-0.129,-0.155,0.00669,0.244,-0.0414,0.206,-0.0626,-0.21,-0.184,0.197,-0.5,-0.08,0.0255,0.162,0.17,-0.308,0.191,0.0691,-0.0369,0.16,-0.0929,0.0399,-0.125,0.0138,0.0551,0.144,0.0392,-0.0631,-0.385,-0.0109,0.139,-0.0131,0.203,0.0111,-0.162,0.278,-0.0108,-0.0362,0.13,-0.218,0.258,-0.19,-0.0908,0.172,-0.1,-0.0459,0.168,-0.0158,0.00455,0.191,-0.0342,-0.157,-0.0253,-0.279,0.116,0.0132,0.219,-0.602,-0.338,-0.0487,0.0543,0.0293,0.305,-0.0719,-0.244,0.203,0.0231,-0.136,-0.0176,0.00098,0.0653,0.0129,-0.171,-0.0115,-0.148,-0.0286,-0.0963,0.0804,-0.111,-0.023,0.309,0.32,-0.014,-0.214,-0.0162,-0.0251,0.0507,0.048,-0.0646,0.09,-0.0183,0.211,-0.0309,0.0958,0.081,0.111,-0.0734,-0.136,0.0448,0.107,-0.0457,-0.132,0.0453,0.0636,0.154,-0.267,-0.0521,0.267,0.000668,0.0167,0.383,0.162,-0.233,0.0427,-0.0351,-0.155,-0.0476,0.0371,0.0066,0.012,-0.191,-0.22,-0.296,0.116,0.275,-0.195,-0.102,0.0372,-0.0429,-0.115,-0.109,-0.0534,-0.0312,0.185,0.0851,0.0256,0.0522,-0.0648,-0.0248,-0.109,-0.215,0.00213,-0.0685,-0.231,-0.404,0.0369,0.0501,-0.394,-0.143,-0.101,0.191,-0.372,0.0474,0.0899,-0.253,0.157,0.0066,0.0214,0.121,0.0141,0.0455,0.098,0.0373,-0.146,-0.064,0.399,0.0801,0.137,-0.257,0.0133,0.0447,0.0623,0.0786,-0.455,-0.0772,0.04,-0.0585,0.0065,0.114,-0.109,0.255,0.277,-0.0956,0.0725,-0.127,-0.133,0.253,0.401,0.0245,0.0566,0.0404,0.147,-0.129,-0.118,0.0353,0.215,-0.0228,-0.398,-0.0534,-0.0328,0.33,-0.49,-0.195,0.178,-0.107,0.103,0.106,0.0817,-0.0322,0.203,0.0459,-0.0303,-0.0931,0.0377,0.211,0.118,0.136,-0.138,-0.0266,0.266,0.186,0.391,0.025,-0.0869,0.00675,-0.0719,-0.272,-0.0428,-0.258,0.0813,-0.0189,0.027,-0.25,-0.0736,-0.0539,-0.0163,0.138,0.678,-0.0117,0.0578,-0.0295,0.0756,0.206,-0.0688,-0.511,-0.00951,0.0962,-0.026,-0.105,-0.0455,0.166,0.395,0.07,0.132,0.0469,0.148,-0.00244,-0.0302,0.0255,-0.0446,-0.0465,-0.273,0.0321,-0.148,0.144,-0.74,0.337,-0.161,-0.12,-0.00184,-0.203,-0.0118,0.197,0.141,0.0629,-0.302,-0.17,0.0693,0.217,0.0536,-0.00681,0.0469,0.391,0.133,0.198,0.0185,-0.0846,-0.144,-0.0452,-0.242,0.0496,-0.235,0.00632,0.165,0.023,0.132,0.0591,0.0233,0.412,-0.0987,-0.115,0.0661,-0.0552,-0.171,-0.112,-0.151,0.0257,-0.0824,-0.0308,-0.127,-0.0541,0.132,-0.0836,0.057,0.0104,0.386,0.259,-0.067,-0.0602,0.0168,-0.0521,-0.0391,0.0989,-0.126,0.0405,0.0916,-0.072,-0.0167,-0.185,-0.0905,0.254,-0.158,-0.0897,0.0566,-0.0643,0.0128,-0.235,-0.123,-0.0273,-0.336,0.0242,-0.14,-0.0198,0.11,-0.0906,0.0483,0.0286,-0.0438,0.0829,0.114,-0.0513,0.0142,-0.0665,-0.00464,0.0179,0.037,0.459,-0.0792,-0.533,0.00221,-0.00342,-0.0307,0.229,0.127,-0.275,-0.0272,0.0174,-0.0794,-0.116,0.586,0.196,-0.221,0.105,-0.0721,0.0352,-0.193,-0.172,-0.0408,-0.0794,0.00983,-0.0713,-0.219,-0.0927,0.0409,0.0615,0.0209,-0.0205,-0.0323,-0.44,0.0628,0.52,0.0108,0.0783,-0.0607,-0.0125,-0.0979,0.0128,0.0222,-0.415,-0.0775,0.372,-0.0686,-0.0159,0.0411,0.0364,-0.0174,-0.0178,0.0286,0.122,0.0566,0.231,-0.192,0.112,0.035,-0.112,-0.04,-0.217,-0.331,0.00952,0.32,0.0607,0.0675,-0.0938,-0.0694,-0.0184,0.145,0.159,-0.0546,0.145,-0.0533,-0.178,0.31,0.129,-0.0636,-0.0846,0.0305,0.0802,0.406,-0.0708,0.0514,-0.134,0.197,-0.207,-0.193,-0.21,-0.00962,0.286,-0.0405,0.128,0.396,0.00767,-0.0292,-0.0784,0.0087,-0.0827,0.0436,-0.0268,0.0162,0.299,0.126,-0.0162,0.0727,0.234,-0.0621,-0.247,-0.0367,0.0686,-0.0922,0.182,-0.016,-0.176,0.0158,-0.0509,0.164,0.0876,0.078,-0.00759,0.206,0.0347,-0.0233,0.052,-0.0229,0.0207,0.149,0.279,-0.109,-0.491,-0.0538,-0.232,-0.0478,-0.00486,0.342,0.0786,-0.0519,0.0632,-0.196,0.0937,0.0768,-0.00155,-0.148,0.00183,0.0849,0.0615,0.365,-0.0264,-0.275,-0.19,-0.00894,0.0807,0.0324,0.0889,0.0786,-0.00424,0.0588,0.026,0.114,-0.0657,-0.117,-0.00446,-0.21,0.262,0.15,0.269,0.123,0.146,0.0203,-0.0306,0.075,-0.249,-0.29,0.00254,-0.0956,0.113,0.0612,-0.181,0.0219,-0.0232,0.121,0.0251,-0.0451,-0.303,-0.0868,0.0609,-0.00153,-0.0259,-0.00291,-0.081,0.199,0.00888,-0.513,-0.0199,0.183,0.534,0.216,0.0306,0.151,0.272,-0.041,0.00672,0.316,-0.103,0.0386,0.00525,-0.251,-0.041,-0.0425,-0.0119,0.0279,0.088,0.0373,0.183,-0.0308,0.0791,-0.0945,-0.243,-0.0638,-0.0109,-0.296,0.00679,0.189,0.124,-0.144,-0.0987,-0.229,-0.173,-0.0294,-0.128,-0.0671,-0.28,-0.0512,-0.167,0.0525,0.174,0.312,0.0154,-0.224,-0.0776,-0.0763,-0.00846,0.0654,-0.0423,0.288,0.0645,0.00216,0.107,-0.0762,-0.491,0.169,0.425,-0.195,0.0545,0.0537,-0.0243,0.0122,-0.0173,0.0399,-0.0742,-0.0394,0.0759,0.0687,0.145,-0.136,0.2,0.0624,-0.248,-0.212,-0.0416,-0.144,0.0957,0.193,0.0635,-0.0296,-0.209,0.21,-0.183,-0.089,0.0175,0.154,0.0993,-0.012,0.1,-0.000456,0.0181,-0.0431,0.444,-0.0286,0.322,0.0195,-0.0619,0.0367,-0.212,0.195,0.345,-0.119,-0.0317,0.104,-0.0388,0.0584,0.0342,-0.062,-0.11,-0.165,-0.0125,0.112,0.0201,-0.0479,-0.0954,-0.032,-0.0792,-0.0198,-0.00054,0.0502,-0.126,0.0636,-0.117,-0.0269,0.064,-0.427,0.0344,0.0673,0.225,-0.0357,-0.022,0.0209,-0.124,0.0904,0.119,0.169,-0.0896,-0.0405,0.106,0.223,-0.0821,-0.0814,0.0552,-0.117,0.232,0.0517,-0.2,-0.144,-0.166,0.0237,0.0667,0.19,-0.00266,0.0439,0.0398,0.104,-0.122,-0.317,-0.0408,0.103,0.422,0.302,0.174,-0.0635,-0.0855,-0.0486,0.17,0.0158,-0.319,0.226,0.0771,-0.259,-0.0269,0.0439,0.0709,-0.0147,0.0723,0.0518,0.0346,-0.0557,-0.00925,-0.268,-0.00935,-0.0406,0.000378,-0.0592,-0.0314,-0.0545,-0.237,0.0811,0.726,0.128,0.0659,-0.00116,0.492,0.0611,-0.0226,0.0581,-0.158,-0.157,-0.0587,0.142,0.0465,-0.252,0.0136,-0.0135,-0.125,0.149,-0.165,-0.0305,-0.172,-0.141,0.125,-0.102,-0.0239,0.0431,-0.0478,-0.184,-0.121,0.202,-0.12,-0.155,0.0978,-0.377,0.368,0.146,0.0981,-0.237,-0.325,0.0348,0.0607,-0.0924,0.0746,-0.0647,-0.0907,0.101,-0.0715,0.0405,0.199,0.177,-0.0899,0.0321,0.0917,-0.052,-0.156,-0.00652,0.0249,0.212,-0.117,0.0915,-0.0483,-0.0729,-0.0699,-0.26,0.115,-0.228,0.256,-0.205,-0.0309,0.0942,-0.0349,-0.143,0.206,0.0938,-0.155,-0.238,-0.0359,0.118,-0.0602,-0.0245,0.199,0.0354,0.363,-0.0119,-0.11,-0.00979,0.0129,-0.177,0.192,-0.5,0.07,0.1,-0.141,0.00882,0.0789,0.121,0.0581,0.133,-0.00387,0.127,0.349,-0.0187,-0.281,-0.0474,-0.177,0.0248,0.142,-0.00825,0.017,-0.144,0.142,-0.0879,-0.0744,-0.154,-0.147,-0.00388,0.0528,-0.00165,-0.0093,-0.171,0.125,0.0115,0.0783,0.0331,0.0235,0.0201,-0.609,0.0136,-0.165,-0.0884,0.017,-0.0621,-0.0266,0.0963,-0.109,-0.0304,0.0934,-0.0188,0.291,0.407,0.043,-0.272,0.01,0.0613,0.004,0.251,-0.0121,-0.0144,0.0358,-0.00863,0.0445,0.309,-0.216,0.0995,-0.169,0.0985,0.0115,-0.000284,0.0485,0.0803,-0.275,-0.00142,0.0827,-0.0413,-0.0263,0.02,-0.0674,-0.156,-0.0357,-0.0247,0.00178,-0.108,-0.0363,-0.00055,-0.349,0.044,0.595,0.159,0.0674,0.0365,-0.0725,0.0181,0.0013,0.222,-0.109,0.0268,-0.0639,-0.0193,-0.0923,-0.0747,0.591,0.0558,-0.0725,-0.0124,0.279,0.0673};
float f3_1_bias[64] = {0.0752,-0.103,-0.0228,0.0641,-0.0347,-0.164,0.096,-0.00167,-0.0901,0.0519,0.0382,-0.312,0.107,-0.0918,0.0342,0.095,0.0338,-0.00664,0.211,0.00416,0.0844,-0.0581,-0.121,-0.104,0.0935,-0.0185,0.253,-0.0336,-0.0383,0.236,0.0166,0.0378,-0.159,0.103,-0.0704,-0.166,-0.0825,0.194,-0.0589,0.0411,-0.0033,-0.121,-0.0228,-0.0798,-0.0266,-0.314,0.172,0.0127,-0.192,-0.235,-0.0568,0.043,0.0592,0.00481,0.134,0.0344,0.101,0.0636,0.117,0.328,-0.143,-0.0618,-0.0883,-0.333};
float f3_2_weight[64*1*3*3] = {-0.664,0.0765,-0.446,0.242,-0.609,0.481,-0.196,0.0936,0.034,0.328,1.86,-0.344,-0.455,0.0244,-0.0946,-0.0873,-0.133,-0.0559,-0.65,-0.296,0.0275,0.0446,0.14,-0.799,1.1,0.194,0.867,-0.0671,0.0869,1.6,-1.91,-0.467,-0.772,-0.754,1.12,0.65,0.579,0.157,0.411,-0.0805,-0.267,-0.941,-0.415,-0.282,0.985,-0.716,-0.307,-0.267,-0.0399,-0.185,-1.4,-0.13,0.0993,0.15,-0.369,0.305,-0.318,0.0962,-0.121,-1.31,-0.579,-0.326,-0.701,-1.07,0.237,-0.197,-2.51,-0.516,0.427,0.911,0.203,0.201,0.285,0.627,-0.185,1.57,-0.321,0.295,-0.0529,-0.0257,-0.224,-0.172,0.506,-0.83,0.316,0.2,1.43,-1.41,0.71,0.636,0.587,-1.41,0.36,1.54,-1.72,-1.03,-0.513,-1.36,-0.0978,1.24,-0.00561,1.27,1.62,-0.361,-1.34,0.76,-0.747,0.517,-0.16,-1.5,0.475,-0.556,1.73,-0.0413,-1.27,0.119,-1.84,-0.584,0.157,0.111,-1.14,0.327,0.532,0.215,0.244,-0.164,-0.0254,0.0139,0.641,-0.0909,0.132,0.0409,-0.482,-1.03,1.29,-0.203,0.995,0.607,-1.2,-0.197,-0.131,-0.382,0.47,-0.237,-0.447,-0.112,0.192,-0.138,0.069,0.388,-0.466,-1.24,-0.765,-0.244,0.747,-1.3,0.0896,-0.0911,0.408,-0.956,-0.0225,-0.664,-3.01,0.836,-0.319,1.22,-0.0368,0.00911,-0.985,0.748,0.532,-0.0982,-0.247,-1.26,-0.275,0.442,0.0325,-0.165,0.627,-0.0473,-0.636,0.135,-0.342,-0.412,-1.42,0.273,0.6,1.14,0.653,0.0848,0.727,1.41,-1.37,0.159,0.238,0.0633,-0.332,-1.15,-0.714,0.275,0.102,-0.4,0.15,-0.489,0.843,1.19,-0.263,-0.325,0.224,0.103,-0.515,-0.0739,-0.203,-0.127,-0.858,0.173,1.48,-2.03,-0.512,0.848,0.144,0.93,0.678,-0.299,-0.933,0.668,-0.981,-1.4,0.249,-0.515,0.265,-0.141,0.905,-1.17,-0.103,0.571,-0.824,0.0381,-0.803,-1.28,2.31,0.191,-0.569,0.25,0.558,0.00866,-1.09,-0.152,-0.281,1.71,0.181,-1.64,-0.373,0.695,-1.84,-1.27,0.0856,-0.693,0.175,-1.14,-1.52,1.93,-0.857,1.99,-0.661,0.419,0.683,1.88,0.39,2.1,0.719,-0.451,-1.34,-0.951,2.09,-0.863,1.88,0.606,1.07,1.34,-0.261,0.542,-0.394,-0.081,1.01,-0.596,1.78,1.27,-0.549,2.33,2.17,-0.85,1.34,-2.67,1.54,-0.686,2.41,1.4,-1.03,0.232,-1.47,-0.117,-1.79,0.125,-1.67,-0.432,1.22,1.45,0.0535,1.48,-1.32,-0.0815,0.557,0.342,-0.303,0.0657,0.092,0.865,0.449,-0.271,0.579,0.194,0.453,-0.366,0.209,0.329,1.13,0.172,1.42,1.22,-0.851,-1.2,-0.885,-2.65,-0.129,-0.321,-0.751,-0.456,-1.03,-0.258,0.363,0.231,0.191,-0.00486,-1.32,2.23,1.23,-0.753,-0.0222,-1.23,-0.105,0.403,0.804,-0.645,0.702,1.04,-1.31,-0.887,-0.233,-0.327,0.886,-0.543,-0.371,-1.54,0.0558,-0.699,-0.817,1.2,-1.35,-0.21,0.256,-0.14,0.162,0.416,-0.055,-1.83,0.434,0.333,-0.257,1.14,1.22,0.126,1.45,1.5,-0.729,0.0203,0.338,-0.377,0.0162,-0.216,-0.355,-0.0548,-0.087,-0.637,-0.0103,0.114,-0.632,0.297,0.176,0.0206,0.353,-0.153,-1.07,0.149,0.265,0.216,-0.702,0.398,-0.0654,-0.304,-1.2,1.11,0.295,-0.11,-0.162,0.468,-0.362,-0.274,-0.662,-1.19,0.172,0.331,-0.53,-0.185,-0.389,0.338,0.454,0.0484,-1.29,0.863,0.449,0.00311,-0.842,0.0944,0.367,-0.231,0.204,0.133,0.665,0.106,0.549,-0.518,0.366,-0.442,-0.454,-0.371,-0.871,-0.624,0.179,-0.845,0.821,0.146,-0.469,0.0433,-0.13,-0.428,0.123,-0.914,-0.281,0.772,3.16,-0.598,0.854,2.3,0.252,-0.308,-1.26,0.158,-0.119,0.435,-0.00483,0.782,-0.739,-1.01,-1.78,1.36,-0.273,-1.49,0.309,0.188,0.581,0.945,0.141,-0.584,0.643,0.753,-1.05,-0.251,-0.813,1.33,-0.359,0.0601,-0.0735,2,2.35,2.3,-0.62,1.59,0.231,-0.0167,0.283,0.0105,1.31,-0.378,0.39,-1.26,-0.207,0.0836,-0.889,0.916,-0.0541,-0.388,0.344,-0.473,0.376,0.0994,0.123,0.117,0.436,-0.0221,0.0805,-0.39,0.287,-0.646,0.0135,-0.302,-0.263,0.686,0.915,0.00261,0.223,0.0912,0.149,0.325,0.123,0.365,-0.594,0.131,-0.236,0.505,0.228,-0.588,0.169,0.65,0.0323,-0.169,0.601,0.534,-0.138,0.343,-2.32,0.027,-0.521,-0.731,0.001,-0.905,0.609,1.7,0.683,-1.06,0.662,0.804,0.0281,-0.334,-0.152,-0.323,1.22,-0.521,0.739,0.314,-2.16,0.509,0.521,-0.0211,0.766,0.799};
float f3_2_bias[64] = {-0.0118,0.159,-0.012,-0.161,-0.174,0.451,0.0749,-0.663,0.32,0.306,0.111,0.192,-0.344,-0.0784,1.33,-0.378,-0.039,0.627,0.774,-0.215,-0.267,-0.162,0.223,-0.0344,-0.042,-0.0331,-0.156,0.00381,0.277,-0.0237,0.13,0.114,0.435,0.0226,0.0157,0.0976,0.0606,-0.014,-0.148,0.508,-0.0121,0.645,-0.48,0.0715,-0.35,-0.126,0.00886,0.104,-0.00195,0.267,0.185,-0.0908,0.0421,0.357,0.00539,-0.21,0.199,0.0251,-0.0577,0.0359,0.165,0.155,-0.0551,0.00504};

float f4_1_weight[64*64*1*1] = {0.0144,0.0019,0.00925,0.139,-0.0853,0.216,0.0176,-0.212,-0.0725,0.195,-0.135,0.093,-0.053,0.00804,-0.042,0.0562,0.0586,0.193,0.16,0.0109,-0.0073,-0.0762,-0.125,0.116,-0.00313,0.171,0.0494,0.103,0.0598,-0.125,-0.0316,-0.0802,-0.0734,-0.0363,0.00615,0.0364,0.284,-0.0222,-0.0677,0.0463,-0.102,-0.0389,0.196,-0.106,-0.0459,0.0116,0.138,0.00494,-0.0188,0.00789,0.0766,-0.175,0.12,0.0907,0.0679,-0.296,-0.0819,0.233,0.189,0.0216,0.238,-0.0478,0.0718,0.0788,-0.0265,-0.0127,-0.00599,-0.111,-0.0168,-0.113,0.195,0.042,-0.323,0.186,0.103,0.108,-0.0209,0.00986,-0.162,0.035,-0.0993,0.422,-0.0921,0.0442,-0.00437,-0.184,0.0948,0.0784,-0.00566,0.00484,-0.0507,-0.0341,-0.0466,0.0444,0.0721,-0.134,-0.208,-0.0124,0.00417,0.115,0.0977,0.0361,-0.0253,0.0883,-0.00818,0.0507,0.238,-0.0921,0.0571,-0.0351,-0.0368,-0.144,0.0533,-0.103,-0.103,0.0154,-0.0247,-0.141,-0.041,-0.217,-0.0144,0.047,-0.00597,0.015,-0.00406,0.000605,0.102,-0.00772,0.0608,0.036,-0.195,0.158,0.000813,0.0287,0.0874,-0.00885,-0.0361,0.0478,0.106,0.13,-0.078,-0.0472,-0.0452,0.0258,0.266,-0.0673,-0.0387,0.0103,-0.138,0.289,0.0228,0.00347,-0.00929,-0.11,0.126,0.114,0.172,-0.186,-0.0258,-0.0649,-0.241,-0.046,-0.0443,0.16,0.232,0.151,0.0308,-0.21,0.0286,-0.151,0.0419,-0.133,0.131,-0.0153,0.0284,-0.182,-0.0149,0.0111,-0.103,0.0736,0.0262,-0.0408,0.205,0.156,-0.111,0.0952,-0.0106,0.17,0.145,0.225,0.138,0.0333,-0.137,-0.123,0.00142,-0.201,-0.157,0.0476,0.0511,0.0787,-0.00932,-0.155,-0.136,0.0146,-0.096,-0.0562,0.175,-0.218,0.117,-0.186,-0.0244,-0.0182,-0.0293,0.0303,-0.209,0.0337,0.0329,0.0934,-0.0935,0.0532,-0.0563,-0.129,-0.148,-0.102,-0.164,-0.0858,0.0399,0.0219,0.066,-0.0541,-0.0683,-0.128,0.0342,-0.0163,-0.0648,0.0303,-0.175,-0.102,-0.183,0.0761,0.00253,-0.134,-0.0023,0.153,0.139,-0.0945,-0.0412,0.135,0.129,-0.0418,0.261,-0.0458,-0.0203,-0.05,-0.00399,-0.0542,0.0554,-0.0804,0.0433,0.167,-0.0821,0.0193,0.0296,-0.0938,0.000791,-0.186,0.0671,-0.00848,-0.0521,0.131,-0.206,-0.184,-0.0383,0.119,0.0679,-0.0378,0.034,0.0383,-0.0995,-0.087,0.0351,-0.0194,0.0988,0.0348,-0.0918,-0.0648,0.118,0.0244,-0.0313,-0.0904,0.147,-0.315,-0.001,-0.13,-0.148,-0.181,-0.0742,-0.0181,-0.0511,0.0836,0.0512,-0.0681,-0.186,0.156,0.0856,-0.127,0.0942,0.0444,-0.0675,0.149,-0.138,0.0245,0.173,-0.125,-0.0112,0.171,0.00849,-0.133,0.255,-0.0193,-0.0555,0.0294,-0.116,-0.087,0.0326,0.107,0.0281,-0.0433,0.241,-0.171,-0.0684,-0.106,0.0555,0.0552,0.0912,-0.067,0.15,-0.236,0.0628,-0.00986,-0.0755,-0.0745,0.0488,0.000671,-0.0612,0.0408,-0.0357,0.108,0.209,-0.0431,-0.196,-0.194,-0.106,0.0234,-0.122,0.0281,0.0299,0.00942,0.104,-0.0302,0.0722,-0.0318,0.0785,-0.203,-0.176,-0.0341,0.0842,0.0295,0.0242,0.188,0.0927,-0.116,0.00156,0.172,0.0424,0.231,-0.14,0.124,0.241,-0.096,-0.131,-0.00478,-0.128,-0.0335,-0.0142,0.125,0.236,0.169,0.0888,0.246,-0.0314,0.0404,0.112,0.142,0.126,0.00581,0.00203,0.0225,-0.164,0.0551,0.0792,0.108,-0.0842,0.0851,0.2,0.122,-0.216,0.154,0.0139,0.13,0.0288,0.064,0.0553,0.0749,0.0515,0.0222,-0.0379,0.0903,0.0559,-0.0079,0.0882,0.0697,0.0474,0.119,-0.095,0.0836,0.181,0.142,0.163,0.05,0.031,0.129,-0.0441,0.247,-0.00594,-0.101,0.158,-0.329,0.0677,-0.0325,0.172,0.11,0.00372,0.0891,0.0555,0.172,-0.00137,-0.00303,-0.0933,-0.00106,0.0831,0.324,-0.0191,-0.0261,-0.0357,0.242,0.236,-0.122,0.121,0.0327,-0.021,0.019,-0.0779,0.0981,0.0427,0.00291,-0.132,-0.00645,0.0199,-0.171,-0.0952,0.0412,0.126,-0.017,-0.129,-0.111,0.159,0.315,0.107,-0.0135,-0.132,-0.089,-0.121,-0.064,-0.185,0.00674,0.214,0.068,0.102,0.146,-0.053,-0.0089,0.0969,0.0107,0.0878,0.0358,0.101,0.0814,0.0502,-0.142,0.0222,-0.0699,-0.0733,0.212,-0.0995,-0.0137,0.0136,0.112,-0.187,0.0221,0.0977,-0.000111,0.0316,0.0968,-0.0383,-0.0157,0.0497,0.1,0.126,0.0161,0.0437,-0.0553,0.07,0.152,-0.00114,-0.0206,0.134,-0.00415,0.18,0.134,-0.143,0.197,0.0633,0.23,-0.0346,0.107,0.101,0.156,0.00357,0.0704,-0.123,0.103,0.0841,0.188,0.0226,0.0599,-0.0376,-0.00664,0.0578,0.0931,0.065,0.147,0.0682,0.0786,-0.182,-0.0229,-0.0538,-0.0153,0.0557,0.207,0.0344,0.0101,0.143,0.0891,-0.242,-0.179,0.125,-0.0541,0.131,-0.0321,0.0257,0.148,0.0165,-0.187,0.23,0.0302,-0.149,0.0317,0.101,0.151,0.00504,-0.197,-0.172,-0.121,-0.165,-0.0407,-0.0937,0.0397,-0.131,-0.0493,0.135,0.108,-0.0927,-0.239,0.26,0.00482,0.0403,0.223,-0.188,-0.0819,-0.00733,-0.202,-0.0453,-0.158,-0.0818,0.277,-0.162,-0.149,0.11,-0.0524,-0.223,-0.184,0.045,0.0991,0.0254,0.0824,-0.0313,-0.167,-0.238,0.0204,-0.119,-0.0299,0.113,0.0463,0.0575,0.0816,0.0215,0.111,-0.0776,0.0338,0.185,-0.0274,0.129,0.0737,-0.0446,-0.091,-0.0772,-0.134,-0.132,-0.158,-0.142,0.108,-0.185,0.179,0.101,0.0597,-0.177,0.00793,0.0368,0.0993,-0.0613,-0.166,-0.0511,0.00243,-0.00994,0.0144,0.0987,-0.213,-0.142,0.114,0.448,-0.0578,0.0271,0.15,0.0605,0.0048,0.198,0.0742,0.352,0.0485,-0.0373,0.228,0.0122,0.00991,0.0784,0.0394,0.0285,-0.224,0.185,0.127,-0.305,0.023,0.106,-0.0328,-0.0629,0.361,-0.157,0.0278,-0.00832,0.274,-0.116,-0.245,0.0874,0.0602,0.0222,-0.0126,0.241,0.0581,-0.0308,-0.0263,-0.0121,0.101,-0.101,-0.0547,-0.0736,-0.208,-0.0793,-0.146,0.128,0.15,0.136,0.202,-0.141,-0.0615,-0.0247,0.108,-0.172,-0.0112,-0.0671,-0.101,0.233,-0.151,-0.071,0.0578,0.167,-0.0967,0.0293,0.25,-0.14,0.0364,0.0209,0.1,-0.189,0.217,0.11,-0.0469,0.161,-0.0918,-0.00691,-0.0567,0.205,0.105,0.0701,-0.0954,0.0121,0.0177,-0.118,0.185,-0.0524,0.0475,0.135,0.244,-0.0165,0.105,-0.156,0.108,0.145,-0.0691,-0.0304,0.149,0.0837,-0.0712,0.09,0.0237,0.123,0.0195,0.0748,-0.0127,-0.0698,-0.0648,0.297,-0.19,0.0665,-0.218,-0.0974,-0.000819,-0.115,-0.00722,-0.045,-0.118,0.0529,-0.0658,0.045,0.0828,0.206,-0.108,0.149,0.0377,0.151,0.0466,0.0247,0.251,-0.0734,-0.0721,-0.0788,0.155,0.128,0.00319,0.0766,0.0933,-0.103,0.111,0.0128,-0.0279,0.112,0.0834,-0.0219,0.0231,0.192,-0.34,-0.118,-0.156,-0.109,0.123,0.0473,-0.0244,0.112,0.227,-0.119,0.0379,0.0275,-0.0864,0.233,0.0421,0.218,0.0456,0.0742,-0.128,-0.0627,0.057,-0.169,-0.167,0.0688,0.00756,0.121,0.0756,-0.234,-0.0541,-0.12,-0.224,-0.106,-0.145,-0.105,0.0653,0.158,0.0549,-0.265,-0.0667,0.0408,-0.108,0.0211,-0.0854,0.0368,0.0528,0.233,-0.00353,-0.115,-0.039,-0.151,-0.128,-0.223,0.00412,-0.172,0.0638,0.0411,-0.115,-0.144,-0.0288,-0.0142,-0.23,-0.177,0.0877,-0.187,-0.111,0.0445,0.0752,0.0863,-0.0215,-0.0165,0.00449,0.0828,-0.0196,0.131,0.057,0.0614,0.183,0.0548,-0.0444,0.0637,-0.14,-0.138,0.0136,0.158,-0.169,-0.0339,-0.033,0.154,-0.051,0.143,-0.0173,-0.0752,-0.0722,-0.244,-0.0693,-0.0916,-0.0482,-0.0319,-0.0018,0.17,0.0949,0.194,-0.0385,0.0701,-0.0779,-0.0216,-0.0278,0.0109,-0.364,0.0186,0.0194,-0.327,0.125,0.0101,0.0551,0.0185,-0.0359,0.0051,-0.0433,-0.0601,-0.0986,-0.167,-0.0984,0.083,0.0221,-0.0442,-0.115,-0.0075,-0.129,-0.0924,-0.0164,-0.00887,-0.023,-0.0322,0.0392,-0.0374,0.0376,-0.00331,0.111,-0.209,0.0564,-0.0184,0.0354,0.0437,-0.00366,-0.029,-0.372,-0.0999,0.0745,-0.217,-0.188,0.0491,0.0184,0.212,0.0017,0.061,0.0802,-0.0223,0.0272,-0.122,-0.159,-0.0357,0.0336,-0.187,-0.0311,-0.131,0.118,-0.182,0.185,-0.00745,-0.151,-0.0627,0.203,-0.116,-0.0838,0.0753,-0.0321,0.0653,0.0538,0.0226,-0.046,0.00851,-0.147,-0.0311,0.0113,-0.00856,0.0909,0.218,-0.144,-0.164,-0.0767,-0.141,0.0375,0.0293,0.003,-0.0496,-0.0883,-0.019,-0.0958,-0.0449,-0.0636,-0.0713,0.00271,0.22,0.104,-0.151,-0.143,-0.078,-0.00375,0.233,0.0554,0.156,0.138,0.0894,0.079,-0.0579,0.0324,-0.155,-0.00992,-0.101,-0.159,-0.072,0.168,0.123,-0.147,-0.346,0.0603,-0.0642,-0.115,-0.167,0.13,0.0121,-0.127,-0.205,-0.139,-0.117,-0.116,-0.0478,-0.156,0.00157,-0.0377,-0.193,0.0928,0.0198,0.0695,-0.115,0.0412,0.0249,0.0317,-0.0991,-0.166,-0.128,-0.000747,0.109,-0.174,0.0268,0.031,-0.111,-0.0938,-0.176,-0.0056,0.182,-0.0275,0.0527,0.0368,0.149,-0.168,-0.00799,0.131,-0.0965,0.101,-0.12,0.0424,0.0923,-0.029,-0.0451,0.0189,-0.0555,-0.0592,-0.232,-0.0687,0.128,0.186,0.0283,0.0663,-0.0294,0.078,-0.0875,0.043,-0.0236,-0.113,-0.0674,0.104,-0.35,0.174,0.0166,-0.0636,-0.0516,0.0118,0.163,-0.127,-0.256,-0.0046,0.0749,0.0996,0.0167,0.0555,0.168,0.081,0.0925,0.0308,0.233,0.0205,0.145,-0.0839,0.0454,0.0481,0.0205,0.159,0.311,0.0718,-0.0399,-0.0518,-0.0452,0.13,-0.00303,0.102,0.00629,0.0141,0.0408,-0.0848,0.187,0.162,0.117,-0.0627,0.0446,0.0243,0.0918,-0.0497,0.0331,0.0902,-0.0847,-0.126,-0.096,0.0641,-0.0704,0.13,0.1,0.122,-0.0559,0.1,-0.0423,-0.0273,0.123,0.103,-0.0392,0.00616,0.135,-0.0853,0.0279,-0.126,-0.223,-0.0552,0.0181,0.0151,-0.014,0.0387,0.137,0.185,0.221,0.0617,0.236,0.106,0.106,-0.0522,-0.0831,-0.237,0.0916,-0.00966,-0.176,0.0589,-0.0501,0.216,0.0748,0.0888,0.0495,0.121,0.0807,0.0276,-0.0498,0.112,0.0312,0.13,0.122,0.201,0.132,-0.0781,-0.000649,0.0887,0.204,-0.0509,-0.148,-0.108,0.016,-0.15,-0.0357,-0.0843,-0.0412,-0.513,-0.0781,0.0651,-0.161,-0.109,-0.0501,0.118,0.031,-0.0731,-0.0753,0.0215,0.146,0.0788,0.189,0.0624,-0.0156,-0.131,0.0401,0.13,0.0357,-0.0559,0.124,-0.0261,-0.0188,0.023,0.122,0.177,-0.141,-0.0758,0.0211,-0.0735,-0.119,0.0661,0.0251,-0.0441,-0.0718,-0.0635,0.11,-0.156,0.113,-0.0318,0.0559,-0.097,0.0226,-0.128,-0.161,-0.104,-0.0525,-0.221,-0.0419,0.217,-0.0423,0.216,-0.163,0.152,-0.0606,0.0512,-0.0562,-0.0259,-0.132,0.0771,-0.0804,0.0245,0.00632,-0.0723,-0.0408,-0.0897,0.0383,-0.0532,0.373,-0.0642,0.0297,0.0628,-0.0128,-0.125,-0.298,-0.0138,0.0198,-0.125,0.143,0.172,0.0329,-0.059,-0.00752,0.0409,-0.103,0.0347,0.291,0.0423,-0.0263,-0.114,-0.0327,0.254,0.0616,0.0437,-0.0876,-0.111,0.131,0.189,0.11,-0.063,0.0313,-0.111,-0.038,0.132,-0.179,-0.0673,-0.0325,0.00805,-0.0861,0.0824,-0.141,-0.113,-0.0464,0.0434,-0.087,-0.165,-0.132,0.0831,-0.137,0.0396,0.0882,0.0641,-0.127,-0.0143,0.129,0.328,0.119,-0.12,-0.0262,0.0481,-0.124,0.035,0.111,-0.0491,0.0749,-0.0062,-0.0159,0.00439,-0.241,-0.0214,-0.0132,0.255,-0.131,0.116,-0.174,-0.0287,0.155,0.223,-0.276,0.034,-0.047,0.0771,0.0453,0.0477,0.284,0.00759,-0.109,0.138,-0.24,-0.0104,0.166,-0.0529,0.0486,0.226,-0.0187,0.351,0.00349,0.104,0.0704,0.00827,0.113,0.0518,0.0931,0.0883,-0.0175,-0.189,-0.0526,0.000434,-0.0467,-0.193,0.138,-0.0955,0.116,-0.0581,0.0998,-0.0204,-0.0913,-0.0181,-0.0132,-0.0499,-0.0234,-0.111,-0.0216,0.135,-0.101,0.00144,-0.167,0.00824,-0.0208,-0.111,0.0127,0.0776,-0.0651,0.179,0.152,-0.0438,-0.0505,0.0284,-0.0743,-0.0651,-0.132,-0.0184,0.127,-0.186,0.0351,-0.149,0.104,-0.26,-0.141,0.0718,0.0612,-0.0814,0.117,0.0775,-0.0169,-0.0751,-0.103,0.0109,-0.07,-0.0633,0.0669,-0.161,-0.0244,0.146,0.0765,-0.0911,-0.166,-0.0943,0.0214,-0.176,-0.0708,0.101,-0.129,0.0123,-0.0988,0.134,0.00643,0.106,0.0101,0.0491,-0.0572,-0.074,0.171,-0.0723,0.0862,-0.0219,0.103,-0.203,0.00986,-0.253,-0.0816,-0.116,0.0844,-0.155,0.0343,0.0526,-0.313,-0.23,0.0342,-0.00408,0.0837,0.0248,0.113,-0.0659,-0.0252,0.00823,-0.00142,0.0371,0.192,-0.478,-0.176,-0.1,0.102,0.154,-0.186,0.167,0.0108,0.0381,-0.357,-0.131,-0.0508,0.0111,0.242,0.0106,0.103,0.198,-0.0937,-0.336,0.0164,-0.0263,-0.0283,-0.00686,0.00125,0.0575,0.0512,0.022,-0.0534,0.0601,0.159,0.117,0.143,-0.0774,-0.111,0.0628,-0.0653,0.0978,0.0064,-0.0215,0.0169,0.0671,0.102,0.177,-0.0256,-0.225,0.0587,0.0188,0.0939,-0.0925,-0.045,0.299,0.0608,0.0333,-0.0687,0.199,-0.0126,-0.0469,0.00651,-0.0283,-0.0151,-0.137,0.0245,-0.104,0.0471,-0.275,-0.141,-0.168,0.0536,0.286,0.147,-0.0492,-0.116,-0.0737,-0.182,-0.186,-0.0914,0.0685,0.293,0.00802,0.0283,0.162,-0.0421,-0.0232,0.201,-0.0573,0.126,0.389,0.031,0.149,0.329,0.0745,-0.0383,-0.109,0.12,0.149,0.103,-0.0981,-0.0259,-0.00112,-0.168,-0.0281,-0.0345,-0.114,-0.0686,0.0115,-0.192,-0.13,0.0819,0.228,-0.128,0.0444,-0.212,-0.102,-0.178,0.204,-0.00715,-0.00387,0.085,-0.0846,-0.0333,-0.099,-0.0247,0.132,0.197,-0.0377,0.124,-0.13,0.117,-0.141,0.29,-0.015,0.0527,-0.0919,-0.102,-0.173,-0.00542,-0.00652,0.106,0.097,0.0434,-0.124,0.0611,-0.105,-0.0794,0.0726,-0.0515,-0.0455,0.257,0.138,-0.0341,0.0828,-0.282,-0.00181,0.0163,-0.15,-0.0682,0.0513,-0.131,0.243,-0.0595,-0.0826,0.169,0.0824,-0.108,0.00439,-0.00651,0.0297,-0.0976,0.0506,0.033,-0.248,0.0112,0.213,0.215,-0.132,-0.0279,-0.0279,0.188,-0.015,-0.0372,-0.0997,0.0608,-0.124,-0.0477,0.0365,-0.0446,0.0943,-0.0766,-0.161,-0.0362,-0.1,-0.129,0.0184,-0.0407,0.0154,-0.186,-0.165,-0.0142,-0.00161,-0.0281,-0.132,-0.182,0.0637,0.261,0.114,-0.126,0.0539,-0.145,-0.0954,0.177,-0.134,-0.176,-0.142,0.144,-0.0464,-0.125,0.0598,-0.0876,0.026,0.0939,-0.0793,0.0555,-0.0669,-0.0641,-0.0374,0.0546,-0.0139,-0.0495,-0.0225,0.0802,0.0604,-0.0533,-0.0204,0.269,0.212,0.133,-0.00229,0.0524,0.00691,0.00294,0.109,0.0164,0.0791,-0.0526,0.0904,0.0286,-0.106,-0.0816,0.0948,-0.0711,-0.0806,0.211,-0.000825,-0.0773,0.142,0.125,-0.129,-0.13,0.0432,0.0983,0.0492,0.065,0.0534,-0.0501,-0.0319,0.0796,0.0582,-0.0152,0.128,-0.00451,0.331,0.00747,0.13,-0.0414,0.0201,0.0599,0.125,-0.08,0.0333,0.0192,-0.0682,-0.0209,-0.0475,0.197,-0.0476,0.196,0.0519,-0.262,0.157,-0.262,0.108,-0.0262,0.0405,-0.0059,0.0299,-0.155,0.0374,0.147,-0.0524,-0.0689,0.0715,0.147,-0.278,-0.189,0.126,0.0305,-0.0132,-0.124,0.0474,-0.24,0.0386,-0.0767,0.0719,0.125,-0.146,0.073,-0.0358,-0.0636,-0.188,-0.124,-0.0914,0.0334,0.0326,-0.118,-0.143,0.105,-0.1,0.0718,-0.107,-0.114,-0.0131,0.219,-0.0811,-0.0371,0.153,-0.174,-0.114,0.0337,-0.306,-0.0836,-0.0642,-0.034,0.0532,0.122,0.169,-0.0346,0.0969,0.0703,-0.163,-0.00589,-0.133,0.0836,-0.192,-0.0597,-0.0534,-0.118,-0.0542,0.0501,-0.0516,0.00303,0.00626,-0.122,-0.0083,-0.21,0.073,0.022,-0.114,0.0565,-0.0547,0.0267,0.221,0.0366,0.133,0.123,-0.0877,-0.11,0.225,0.0607,-0.0997,-0.0371,0.053,0.0297,-0.155,-0.158,0.0761,-0.156,0.0622,-0.208,-0.046,-0.151,-0.164,-0.107,-0.105,-0.0366,-0.0127,-0.114,-0.117,-0.0969,-0.221,-0.106,0.18,0.175,-0.135,-0.0687,-0.029,0.0305,-0.0403,-0.0612,0.0131,0.0193,-0.0397,0.23,0.11,0.0285,0.0439,-0.104,-0.0747,-0.018,0.12,0.0694,-0.0294,0.0166,0.173,-0.125,-0.0302,-0.0905,-0.117,0.126,-0.00653,-0.0108,-0.0759,-0.00361,-0.0155,0.00271,0.0423,0.000647,-0.0233,-0.0281,-0.0433,0.0682,-0.00232,0.164,-0.0596,0.0452,0.113,0.0947,0.0918,-0.0522,0.0517,-0.108,0.0757,-0.108,0.111,-0.0242,-0.0885,0.0809,-0.162,-0.0754,0.155,0.0664,0.0556,-0.0196,0.0653,-0.0213,-0.11,-0.133,-0.000694,0.066,-0.0612,0.101,-0.098,-0.0215,0.203,0.0109,0.642,0.123,0.146,-0.0127,-0.0812,-0.0112,-0.15,-0.0422,-0.152,-0.0754,-0.0357,0.0872,-0.0545,-0.0492,-0.0644,0.133,0.162,0.0353,0.0347,-0.0358,0.0668,-0.0744,-0.135,0.00622,0.0257,-0.134,0.027,-0.214,0.0815,-0.0561,0.189,-0.0206,-0.00875,0.0354,-0.055,-0.121,-0.0392,0.256,-0.0648,-0.0958,-0.146,-0.0783,0.169,0.172,0.0921,-0.019,-0.0137,-0.104,-0.162,0.0244,0.0503,-0.0262,0.124,0.00316,0.212,-0.109,-0.0416,0.131,-0.125,-0.00673,0.182,0.113,0.0433,0.178,0.0887,-0.0988,-0.0727,0.0623,0.0118,0.078,-0.0863,0.0782,-0.0278,0.0302,0.15,0.0396,0.00897,0.0986,0.0662,0.0656,0.111,0.0952,0.0113,0.0275,-0.0679,0.0756,-0.0726,-0.075,-0.0609,0.0595,-0.0746,-0.0911,-0.291,-0.074,0.0771,0.0461,0.000479,0.137,0.029,0.0725,0.144,-0.0309,-0.0819,-0.0738,0.119,0.275,0.0311,-0.00683,-0.0969,-0.21,-0.0977,0.096,0.0697,-0.157,-0.154,0.21,-0.0135,-0.0722,0.0778,0.0192,-0.129,0.0729,0.141,-0.15,-0.121,-0.0204,-0.174,0.0549,0.0747,0.261,0.054,0.0177,-0.11,0.0125,0.0727,-0.0591,0.0361,-0.0531,0.172,0.0677,0.0296,0.142,0.0371,0.0573,-0.131,-0.0197,-0.014,0.158,-0.104,-0.203,0.086,0.0574,-0.151,0.144,0.0309,-0.0773,0.0419,-0.035,0.18,0.169,0.0963,-0.0244,-0.0468,0.236,0.0515,-0.0846,-0.075,0.0741,-0.0711,-0.053,0.0466,-0.00584,0.0395,-0.0483,0.12,0.109,0.119,-0.00116,0.0587,0.101,-0.0151,0.0289,0.00301,0.261,0.0815,0.165,-0.0231,0.176,-0.0977,0.101,-0.0154,0.124,0.00254,-0.0215,-0.0304,-0.00931,0.0396,-0.124,-0.0145,-0.0057,-0.0178,-0.162,0.178,0.0276,-0.0104,-0.288,-0.126,0.167,0.0192,-0.0975,-0.0698,0.0193,-0.16,0.0882,-0.0129,0.00724,-0.0532,-0.07,0.134,0.0704,0.166,0.171,-0.135,0.0463,-0.0399,-0.0973,-0.0928,-0.0619,-0.31,0.194,0.0356,0.0527,-0.0804,-0.0603,-0.0206,0.159,-0.171,0.22,0.0889,-0.0655,0.0474,0.034,0.0325,0.0772,-0.114,-0.078,-0.0939,0.0382,0.0556,0.034,-0.0442,0.209,-0.0444,0.138,0.137,-0.171,0.11,0.103,-0.0314,0.0397,-0.0147,-0.126,-0.00115,0.00719,-0.00475,-0.119,0.0787,0.0107,-0.1,-0.144,-0.0896,0.0105,0.072,0.0286,-0.0428,-0.0961,-0.0767,0.4,0.109,0.135,-0.129,0.0367,0.161,0.132,-0.123,0.0672,-0.203,0.00674,0.107,0.0457,0.147,0.0363,-0.079,-0.0227,0.141,0.0487,0.00755,0.00521,0.0365,0.0329,-0.00934,-0.153,0.0918,0.0327,0.0447,-0.188,0.0582,-0.065,0.109,-0.0265,-0.05,-0.0259,-0.0771,0.0446,-0.0456,0.0605,-0.0319,-0.0636,-0.0649,-0.0232,0.00955,-0.0616,-0.0126,-0.127,0.206,0.0941,-0.0617,0.131,0.00337,-0.0906,0.0693,-0.0287,0.0597,-0.0741,0.0803,0.118,0.19,0.00694,-0.00887,-0.258,-0.0949,0.267,-0.067,0.0251,0.148,-0.0262,0.0103,0.0991,-0.0708,0.126,-0.278,-0.139,-0.0659,-0.154,-0.297,-0.104,-0.0566,-0.00529,0.109,0.183,-0.127,-0.0341,-0.101,0.073,0.0524,0.0121,-0.147,0.0273,-0.135,-0.137,-0.0982,-0.0524,0.0679,-0.0512,-0.152,-0.118,0.0658,-0.0198,-0.165,-0.0422,0.103,0.0772,-0.156,-0.0515,-0.083,-0.0227,0.0275,0.0266,-0.0868,0.134,0.00867,0.0709,-0.0422,0.0465,0.00232,-0.017,-0.211,-0.0345,-0.0506,0.133,-0.131,-0.125,0.0283,-0.0598,-0.0133,-0.302,0.071,-0.177,0.0124,-0.0282,-0.0768,-0.16,0.0383,-0.116,-0.102,-0.0679,-0.127,0.0492,0.139,-0.229,0.00605,-0.0777,-0.0321,0.0116,0.0915,-0.116,-0.0223,0.0987,0.205,0.0536,-0.147,-0.00611,-0.0282,0.114,0.0829,-0.0571,-0.0605,0.0743,0.0368,-0.0549,0.0714,0.0323,-0.0109,-0.21,0.056,-0.00435,-0.0859,-0.081,0.177,0.118,-0.159,0.112,-0.0475,0.108,0.127,-0.0241,-0.0524,0.0134,-0.136,0.00485,-0.0642,0.0381,-0.0634,-0.101,-0.185,-0.226,0.0198,0.159,-0.12,0.0484,-0.0976,0.058,-0.0559,0.0539,0.0239,0.206,0.144,-0.0923,0.0529,0.192,-0.084,-0.13,0.0994,0.211,-0.149,0.0105,0.163,-0.159,-0.0116,-0.157,-0.18,-0.198,-0.358,0.0025,-0.0259,-0.039,-0.0714,0.0353,-0.0497,-0.0564,0.0022,0.073,-0.14,-0.116,-0.326,-0.0534,-0.149,-0.0753,-0.146,-0.0681,-0.179,0.0675,0.149,-0.0717,0.152,0.214,-0.0672,-0.141,-0.108,-0.0684,-0.068,0.115,0.0306,0.0391,-0.0392,0.139,-0.092,-0.15,0.169,-0.0146,0.108,-0.0471,0.119,0.106,-0.128,-0.0182,0.18,-0.128,0.103,-0.128,-0.0153,0.0035,0.00867,-0.165,-0.0392,0.00399,0.15,0.101,-0.136,0.0846,0.0682,-0.0583,-0.247,-0.109,0.189,0.203,-0.132,-0.00241,-0.148,0.158,-0.138,0.0651,-0.127,-0.0885,-0.114,-0.0416,0.177,-0.11,0.0067,0.117,-0.00539,-0.145,0.233,0.267,-0.0771,0.149,-0.0279,0.0974,0.113,-0.0531,0.0869,0.14,-0.0187,0.14,0.0516,0.125,0.0344,0.241,0.194,0.00283,0.128,0.166,-0.185,0.0837,-0.17,-0.0607,0.0415,-0.122,0.059,-0.0925,-0.0552,0.11,-0.021,0.102,-0.0956,0.191,-0.412,0.0211,0.0607,0.0167,-0.043,-0.0457,0.0601,-0.244,-0.0254,0.0736,0.151,0.0375,-0.167,0.0346,0.0555,0.032,0.0843,0.0793,-0.0298,0.0657,0.0632,-0.0709,0.214,0.0245,-0.0896,-0.108,-0.016,-0.104,-0.00977,-0.0195,-0.11,-0.306,0.013,-0.14,-0.0225,-0.0261,-0.0926,0.0912,-0.0575,-0.0487,0.0264,-0.0789,-0.0988,-0.155,-0.00202,-0.196,-0.322,0.323,-0.0111,-0.149,-0.0889,0.168,0.0158,-0.0114,-0.00978,0.0514,-0.0326,-0.0574,-0.00976,0.142,-0.116,0.0732,-0.00257,-0.135,0.26,-0.00258,-0.0484,0.143,0.16,0.285,-0.0865,-0.0124,-0.0975,0.0818,0.243,0.0502,0.011,-0.103,-0.016,-0.146,0.0903,0.0783,0.0103,-0.00867,-0.00309,-0.057,0.00522,-0.00673,0.177,0.106,-0.00614,0.17,0.0419,-0.137,0.0209,-0.0445,0.0725,0.0474,-0.155,-0.00987,-0.101,0.0183,-0.0559,-0.218,-0.155,-0.151,0.199,-0.00529,-0.0993,0.177,0.0473,0.0941,-0.0408,0.161,0.0128,-0.0191,-0.212,-0.162,0.193,-0.0697,0.129,0.0877,-0.136,0.229,-0.0465,0.0415,-0.109,0.122,0.0807,0.0937,0.0298,0.0147,0.0433,0.132,0.0398,0.104,0.021,0.0867,0.0166,-0.019,-0.122,0.295,0.0211,0.0343,0.109,-0.0578,0.224,0.213,0.0949,0.0804,-0.0473,0.0657,-0.288,0.061,-0.0614,-0.102,-0.118,0.0602,0.0812,-0.0342,-0.0679,0.142,0.119,-0.000619,-0.102,-0.0014,-0.145,0.0829,-0.0369,-0.00505,-0.317,-0.259,-0.262,-0.131,-0.275,-0.382,-6.96e-07,0.0326,0.167,0.133,-0.127,0.00412,0.036,0.0734,0.0892,-0.193,-0.0818,0.123,-0.189,0.288,0.0254,0.0718,-0.277,-0.0579,0.0105,0.0467,0.0846,0.0698,0.0722,-0.0517,0.00539,0.0345,0.0637,0.0519,-0.103,0.033,-0.0641,0.0589,0.0795,-0.0991,-0.0824,-0.135,0.035,-0.034,0.0197,0.0204,-0.168,-0.0422,0.116,0.00544,0.00769,0.0672,-0.145,-0.0969,-0.0366,0.0753,0.0259,-0.0563,-0.0171,-0.00363,0.133,0.055,0.0103,0.105,-0.3,-0.0046,-0.0405,-0.235,-0.368,0.0873,-0.0327,0.0849,-0.0452,-0.0886,0.298,0.239,-0.132,0.205,0.0538,0.151,0.272,0.231,-0.0708,0.0621,0.0204,-0.0739,-0.0231,0.0141,-0.0813,-0.0974,0.0214,0.283,0.0455,-0.128,0.228,-0.125,0.0798,0.00136,-0.227,-0.181,-0.0819,-0.0597,0.174,0.0583,0.238,0.0538,0.152,-0.0521,-0.168,0.108,-0.0329,0.147,-0.038,-0.267,0.0167,0.0736,-0.14,-0.253,0.19,-0.0574,-0.0071,0.0942,0.148,-0.00644,0.0977,-0.0244,-0.0954,-0.121,-0.0524,0.00523,0.078,0.0349,0.0884,0.0731,-0.0636,-0.068,0.0812,0.0107,0.177,0.096,0.115,0.0268,-0.0933,0.395,-0.125,-0.195,0.241,0.019,-0.0244,-0.0495,0.0365,-0.033,-0.0377,0.0101,0.0418,0.143,-0.0304,0.0457,0.014,-0.115,-0.181,-0.204,0.0807,-0.0372,-0.00949,-0.029,0.0258,0.0113,-0.141,0.0801,-0.0893,-0.0132,0.029,-0.0304,0.0743,0.121,0.364,0.3,0.0436,-0.105,0.248,0.0973,-0.165,0.102,0.0265,-0.0457,-0.0151,0.0539,0.0624,-0.109,-0.197,0.0211,0.0794,-0.207,-0.104,0.175,0.148,0.266,0.186,0.00773,-0.0114,0.191,-0.142,-0.108,0.123,-0.0169,-0.0651,-0.0818,0.171,-0.121,0.0253,-0.0565,0.0546,0.145,0.0756,-0.167,0.218,0.0986,-0.0214,-0.0132,0.0894,0.0787,-0.0368,-0.0427,-0.167,-0.154,0.155,-0.00113,0.0419,-0.0388,-0.095,-0.000616,-0.0765,-0.277,-0.0238,0.0963,0.307,0.0248,0.0286,-0.133,0.0923,0.0178,0.0193,-0.0654,0.0525,0.0977,0.111,0.194,-0.155,-0.0802,-0.129,0.0544,-0.054,0.0729,-0.0369,-0.0394,0.0535,-0.0469,-0.0389,0.127,-0.000665,-0.141,0.00652,0.0942,0.058,-0.0043,0.0183,0.0528,-0.0316,0.17,0.0111,0.084,-0.0476,-0.0758,0.198,0.0539,0.0511,-0.0651,-0.103,-0.113,-0.112,-0.0835,-0.0155,-0.232,-0.035,0.0453,-0.0597,-0.104,-0.12,-0.253,-0.0329,0.187,-0.0651,0.177,0.0458,-0.0287,0.0518,-0.0369,-0.0466,-0.0607,-0.0841,-0.125,0.0686,0.0165,-0.0066,0.128,-0.107,-0.156,0.00677,0.116,-0.17,-0.163,0.000103,0.234,0.104,-0.0368,0.0914,0.00621,0.134,0.0987,0.0539,-0.052,-0.0289,0.0738,-0.0587,-0.111,-0.175,-0.116,0.0241,-0.0167,-0.0439,0.0539,0.023,0.0499,-0.0556,0.00469,0.172,-0.114,0.0856,0.0774,-0.0203,-0.322,-0.187,-0.0761,-0.172,0.0162,0.0249,0.0785,-0.0477,-0.0235,0.0115,-0.279,-0.0473,-0.0522,0.133,0.128,-0.0577,0.0909,0.0411,-0.145,-0.184,-0.0198,-0.0413,0.078,0.195,-0.168,0.0885,0.0267,-0.149,0.0322,-0.0245,-0.0148,0.187,0.2,-0.0692,0.0043,0.0883,0.29,0.0195,0.0437,0.143,-0.0891,0.0217,-0.144,0.0521,-0.1,-0.126,0.0133,-0.144,-0.294,0.152,0.0838,0.0154,0.0751,-0.143,-0.0213,-0.0214,-0.234,0.135,-0.0215,-0.13,0.00135,-0.102,0.16,0.157,-0.0035,0.105,0.0291,0.0736,0.00216,-0.151,0.0317,0.00665,-0.0655,-0.0363,-0.155,0.0833,-0.128,-0.086,-0.182,0.0476,-0.107,0.0194,-0.158,-0.104,-0.21,-0.0145,-0.246,-0.000198,-0.097,-0.0369,0.0675,-0.12,0.0238,-0.176,0.0463,-0.0373,0.0519,0.226,-0.0145,-0.0602,-0.144,0.147,0.0394,-0.0482,-0.0918,-0.0881,-0.0207,-0.175,-0.0528,-0.174,-0.202,-0.0229,0.0147,0.0281,-0.2,-0.0753,0.033,-0.0734,-0.0312,0.0134,0.00663,0.0553,-0.128,-0.172,0.00434,-0.173,0.209,-0.168,-0.0415,-0.191,0.0377,-0.0515,-0.118,-0.0209,0.0544,-0.000754,-0.0141,-0.0321,0.0554,0.0345,0.0861,-0.0686,-0.0897,-0.0706,-0.126,0.054,-0.197,0.128,-0.132,-0.00155,0.154,-0.0217,0.00916,-0.182,-0.108,0.0362,-0.0353,0.0507,0.195,-0.0476,-0.202,0.121,-0.119,-0.0183,-0.0254,0.062,-0.0197,0.145,-0.149,0.0719,0.0271,-0.0373,0.14,-0.0353,-0.0594,-0.107,0.0143,-0.283,0.0304,0.00825,-0.0123,0.0124,-0.132,0.0272,0.0317,0.0185,0.0996,-0.183,0.201,-0.0742,-0.185,0.074,0.0326,-0.0748,0.02,0.341,0.315,-0.157,-0.123,0.0796,-0.144,-0.0443,0.059,0.367,-0.082,0.0372,-0.0428,-0.108,0.0807,0.16,0.0986,-0.131,-0.106,-0.0367,0.076,-0.0783,0.00395,-0.0243,-0.0035,0.231,0.0633,0.245,-0.0629,0.0217,0.0402,-0.0113,-0.0971,-0.0117,0.205,-0.0992,-0.0386,0.0668,0.147,0.118,-0.0338,0.015,0.0709,0.172,-0.27,-0.0458,-0.168,0.069,0.124,0.203,0.0698,-0.132,-0.135,-0.125,-0.0559,0.0503,0.0565,-0.0609,-0.344,-0.172,0.154,0.0146,-0.12,-0.0181,0.00841,-0.00989,0.173,0.0542,-0.0667,0.0105,-0.0449,-0.287,0.046,-0.289,0.12,-0.058,-0.0607,0.0675,0.0703,-0.125,-0.105,-0.219,0.0351,0.0685,-0.0352,0.00553,0.0574,-0.117,0.0231,-0.129,0.181,-0.0523,-0.141,-0.0342,0.129,-0.099,0.04,0.0553,-0.155,0.0168,0.0803,-0.00764,0.231,0.0107,-0.101,-0.0216,-0.156,-0.108,-0.0647,-0.13,0.0846,-0.0863,0.0941,0.097,0.0782,-0.0296,-0.0667,0.0765,0.136,0.0534,0.15,-0.00412,0.0943,-0.0487,-0.097,0.147,0.0236,0.116,-0.165,-0.0614,-0.164,-0.14,-0.161,-0.0565,0.173,-0.0752,0.121,-0.0098,0.197,0.228,0.0509,0.107,0.177,0.089,0.0408,-0.00575,-0.0979,-0.0358,0.0583,0.00511,-0.0114,0.0096,0.159,0.166,0.0651,-0.098,0.119,0.141,-0.0507,0.0184,0.0981,-0.262,0.128,-0.151,0.0104,0.114,-0.021,0.0299,0.248,0.0643,0.454,-0.00986,0.0605,0.024,0.138,-0.0756,-0.0811,-0.223,0.0847,0.111,0.101,-0.0734,0.146,-0.164,-0.00188,0.0326,-0.0722,-0.189,0.23,-0.0554,0.0461,-0.000458,-0.0881,-0.0309,-0.0493,0.0576,-0.124,0.232,-0.0887,-0.0281,-0.0828,0.0503,-0.174,-0.128,-0.0379,-0.131,-0.12,0.0595,-0.0599,0.235,0.148,0.147,0.0479,-0.0439,0.0917,-0.245,0.191,-0.129,-0.166,-0.0113,-0.0737,-0.0953,-0.0612,-0.26,0.0363,0.0255,0.0348,-0.0548,-0.0983,0.0345,0.0505,0.156,0.135,0.03,-0.172,-0.0528,0.0887,0.0484,0.116,-0.115,0.0667,-0.155,-0.205,0.00218,0.116,-0.207,-0.171,0.00977,0.0357,-0.00949,-0.0987,-0.00299,0.107,-0.00371,0.0124,-0.25,0.0999,-0.147,0.00549,-0.0964,0.061,0.0152,-0.0544,-0.0158,0.0917,0.13,-0.096,-0.0595,-0.00482,0.0281,-0.0319,-0.0475,-0.0301,0.068,0.0425,0.111,-0.0718,0.0897,0.0371,-0.0885,-0.0958,-0.0926,0.0505,-0.0442,-0.0106,0.0441,0.122,0.219,0.172,0.182,0.0414,-0.184,0.0656,-0.0932,0.0178,-0.0778,-0.0323,-0.0947,-0.00883,0.0294,-0.116,-0.0724,-0.158,0.151,-0.133,0.0539,0.132,0.141,-0.0747,0.252,-0.131,-0.00498,0.014,-0.00149,-0.0762,-0.153,-0.267,0.1,0.177,0.0119,-0.192,0.298,0.0681,0.0428,-0.284,0.0797,-0.0228,-0.0263,0.0642,0.0578,0.369,0.148,-0.0108,0.207,-0.0564,0.0317,0.0578,0.0136,0.173,0.172,0.0586,0.0633,0.18,0.0194,0.0332,0.124,-0.0657,0.0804,0.188,0.0748,0.0281,0.362,0.0669,-0.183,0.0502,0.114,0.0689,-0.054,0.0494,0.0374,0.079,0.0185,0.116,-0.0963,-0.00946,-0.0319,-0.0105,0.039,0.105,0.288,-0.0475,-0.00633,-0.109,0.0145,-0.133,-0.155,0.00546,-0.166,-0.0319,0.0488,-0.0848,-0.0284,0.0377,0.197,-0.243,-0.0272,0.0927,-0.0295,-0.116,-0.045,0.157,-0.306,0.0632,-0.000385,0.108,0.14,0.121,-0.242,-0.135,-0.0931,-0.0479,-0.0449,0.106,-0.226,-0.0806,-0.172,-0.077,0.0431,-0.116,-0.00725,0.0485,-0.032,-0.127,-0.0443,0.266,0.0194,0.21,0.0347,-0.00957,0.0091,-0.169,-0.0588,0.0844,0.0939,-0.0787,-0.0582,-0.295,-0.0774,0.0122,-0.0457,0.0608,0.0404,-0.0408,-0.0705,-0.0277,0.106,-0.0566,-0.0309,0.0275,-0.0476,-0.228,-0.000387,-0.0575,0.231,0.128,0.151,-0.0487,0.00707,-0.0339,0.0512,-0.0112,0.212,-0.203,-0.208,-0.0341,0.201,0.0981,0.191,-0.12,-0.0873,0.099,0.0682,-0.0921,-0.059,0.27,0.122,0.187,-0.0149,-0.124,-0.0262,-0.0746,0.0676,0.0129,0.00265,0.0221,-0.0199,0.0458,-0.109,-0.143,0.0225,-0.0424,-0.00339,0.0384,0.0221,-0.0603,0.0796,-0.0385,0.0228,0.209,0.209,0.0608,-0.0634,0.232,0.182,0.0943,-0.082,0.0553,0.0901,-0.124,0.0104,-0.0335,-0.048,0.0301,0.0412,-0.014,0.109,-0.0524,0.119,0.115,-0.195,-0.413,0.0803,0.083,-0.221,-0.4,0.088,0.0473,-0.216,-0.0419,0.121,-0.19,-0.0704,-0.0753,0.00328,-0.0639,-0.0272,-0.0291,-0.0474,-0.0684,-0.172,0.0531,0.0825,-0.115,-0.0165,0.0125,-0.0623,0.114,0.0609,0.121,-0.296,0.146,-0.0375,0.0389,0.0468,-0.0874,0.0986,0.0105,-0.0745,0.048,-0.128,-0.138,0.0244,0.0122,0.0471,0.0504,-0.152,0.116,-0.055,-0.0173,0.0799,0.123,0.0292,-0.135,0.11,0.0202,-0.0411,0.0342,0.122,-0.0269,0.02,-0.0734,0.000609,-0.229,-0.124,0.121,-0.266,0.233,0.188,0.148,-0.0742,-0.141,0.0413,-0.0709,-0.0679,0.264,-0.00521,-0.0581,-0.0744,0.102,0.191,-0.163,0.302,0.209,-0.0241,0.137,0.00425,0.0312,0.0852,0.0164,0.113,0.0118,0.026,-0.00303,0.136,0.0289,0.0466,0.0672,-0.0857,0.156,-0.348,0.0564,0.0106,0.0133,-0.0104,-0.0781,0.309,0.141,0.0866,-0.0472,0.0335,-0.135,0.0759,-0.128,-0.17,0.0624,0.0688,-0.0312,0.164,-0.11,0.0763,-0.0619,-0.0773,0.0469,0.0886,0.098,0.126,-0.0476,-0.0677,0.0789,0.141,-0.065,-0.0565,0.0359,0.0898,-0.109,-0.0656,-0.0044,0.0178,-0.00515,-0.0118,-0.0256,-0.0898,0.0605,-0.0879,0.142,-0.0838,-0.0671,0.0388,0.0588,-0.546,-0.243,0.116,-0.49,0.00768,0.0386,0.0643,0.0881,0.0321,-0.257,0.00351,-0.392,0.0655,-0.157,0.0905,-0.0459,0.151,0.00206,-0.0522,0.15,-0.0312,0.00658,0.00841,0.165,-0.012,0.0871,0.0752,0.0547,0.0505,0.209,-0.0242,-0.128,-0.238,-0.153,-0.0438,-0.0105,-0.0997,-0.174,-0.0836,0.098,0.0175,-0.142,0.122,-0.122,0.0927,0.0215,-0.00356,0.0378,0.114,-0.0908,0.0845,0.177,0.014,-0.00837,-0.0847,0.0191,0.192,-0.0858,-0.0745,-0.0626,0.226,0.175,0.0789,-0.154,0.0854,0.0197,0.0448,0.0974,0.3,0.0785,0.204,0.0477,-0.018,0.0405,-0.135,0.077,-0.0412,0.115,0.0463,0.169,-0.207,0.0279,0.119,0.000565,0.142,-0.0605,-0.0985,0.3,0.196,0.00766,0.202,-0.0934,0.0119,0.0818,-0.0409,0.0199,0.0359,-0.019,0.00163,-0.1,-0.00681,0.052,-0.176,0.07,-0.0126,-0.103,0.0844,-0.0346,-0.17,0.18,0.0807,0.0468,-0.0625,-0.0842,0.164,0.0151,-0.146,0.0779,0.19,0.206,-0.165,-0.000543,0.0481,-0.0114,0.204,-0.102,-0.0684,0.148,-0.00829,0.159,0.101,0.0322,-0.254,0.158,0.153,0.0452,0.0963,-0.207,0.00808,0.0334,0.0412,-0.0764,0.0591,-0.206,0.149,-0.0662,-0.0611,0.107,0.0504,0.0212,-0.139,-0.158,0.046,-0.146,-0.172};
float f4_1_bias[64] = {0.0754,-0.0673,-0.0317,0.124,-0.011,0.0428,-0.0561,0.0574,-0.225,-0.0485,0.019,0.0555,0.00372,0.0803,0.179,-0.0925,-0.0977,-0.000427,-0.102,0.322,-0.0138,0.0142,0.258,0.275,-0.0988,0.00456,0.204,0.106,0.105,0.4,0.231,0.0253,-0.274,-0.248,-0.0341,-0.12,-0.0017,0.033,0.0336,-0.0367,0.186,-0.136,-0.26,0.151,-0.0564,-0.0512,-0.118,0.0749,-0.00556,0.144,-0.0193,0.0219,0.231,-0.0329,-0.0289,-0.0525,-0.00287,0.0529,0.0373,-0.0656,-0.028,0.0199,-0.07,0.0236};
float f4_2_weight[64*1*3*3] = {-0.0206,0.343,-0.181,-0.232,-0.412,-0.477,0.152,-0.125,-0.912,0.132,-0.012,-0.13,-0.257,0.864,0.287,0.128,0.365,-0.107,0.0171,0.411,0.0927,-0.0241,-0.0125,0.0155,-0.338,-0.258,-0.0114,-0.222,-0.174,0.579,-0.549,-0.146,-0.262,-1.86,0.064,-0.269,-0.327,0.0469,0.0694,0.42,0.841,0.206,0.0621,-0.0649,-0.0149,-0.249,-1.03,-0.178,0.00752,0.0509,0.329,0.11,0.169,0.317,-0.103,-0.41,-0.125,0.288,-0.485,0.449,0.195,0.209,0.0599,-0.152,-0.0854,0.554,0.103,-0.143,0.0218,-0.535,-0.383,-0.403,-1.3,0.141,-1.01,-0.25,-0.443,-0.272,-0.118,0.546,-0.635,0.134,0.114,1.16,-0.118,-0.308,0.763,0.464,-0.455,-0.531,-0.168,0.219,0.0987,1.36,-0.96,0.524,-0.995,-0.29,0.0382,-0.0104,0.65,1.67,-0.311,-0.372,0.523,0.0557,0.115,0.181,-0.51,-0.781,-0.455,-0.211,0.422,0.733,0.752,-0.00891,-0.349,0.583,0.156,-0.688,0.238,0.174,-0.284,0.681,0.298,0.0539,-0.184,-0.52,-0.444,-0.196,-0.328,0.0372,0.247,0.26,0.0406,-0.385,0.378,-0.199,-0.0389,0.163,-0.152,0.0627,-0.0111,-0.95,-1.04,-0.167,0.161,-0.177,-0.241,0.165,1.01,0.437,-0.303,0.0252,-0.102,-0.157,0.574,0.435,-0.736,1.19,-0.472,-0.253,0.213,0.439,0.0483,-0.36,0.159,-0.432,0.0758,-0.183,0.517,0.306,-0.655,-0.216,0.297,0.563,-0.587,0.908,-0.0106,0.194,-0.0805,0.177,-0.0828,0.378,-0.00914,0.397,0.195,0.455,0.389,0.165,-0.758,0.293,0.444,-0.664,0.148,0.802,-0.439,-1.12,-0.231,0.0646,-0.262,0.402,-0.15,0.0469,-0.0735,0.945,0.87,0.338,0.369,-0.176,0.255,0.0635,-0.0244,0.172,-0.106,-0.00525,-0.167,-0.222,0.166,-0.153,0.0151,-0.0844,-0.564,0.116,0.162,-0.272,0.0334,-0.435,0.542,-1.31,0.198,0.12,0.226,0.182,-0.185,0.0364,-0.361,-0.15,-0.807,-0.102,-0.0111,0.101,-0.263,-0.283,0.674,0.361,-0.0168,0.494,0.0784,-0.279,-0.0221,0.0601,0.044,0.169,-0.248,-0.474,-0.868,-0.61,-0.501,0.059,-0.0348,1.19,-1.38,0.173,0.0344,0.35,-0.137,-0.805,-0.188,0.147,0.1,0.387,0.808,-1.78,0.222,0.139,-0.0544,0.254,-0.465,0.0676,-0.218,-0.802,-0.849,-0.18,-0.446,-0.515,1.47,-0.0619,0.0729,1.09,1.11,-1.16,1.06,1.33,-0.00252,-0.4,0.0011,-1.01,0.346,-0.0259,-0.191,-0.21,-0.287,-0.559,0.4,-0.198,1.19,-0.16,-0.219,-0.0764,-0.244,0.937,0.204,0.376,-0.365,-0.112,0.371,0.526,-0.0724,0.362,-0.0433,-0.122,-0.235,-0.245,0.171,-0.0509,-0.316,-0.855,0.39,-0.286,-0.0708,-1.02,-0.155,-0.123,-0.0425,-0.761,0.421,0.333,0.617,-0.162,-0.214,0.123,0.297,0.162,-0.329,0.189,0.504,-0.415,0.359,-0.134,-0.1,-0.506,-0.199,-0.0845,0.329,0.92,-0.526,-0.651,-0.00307,0.0373,-0.14,-0.481,0.097,0.539,-0.0237,-0.215,0.498,1.05,0.709,0.678,-0.669,-0.0824,0.0448,0.111,0.455,0.339,0.0417,0.587,0.0546,0.0207,0.198,0.277,-0.949,0.481,0.525,-0.584,-0.225,0.848,-0.71,0.0735,0.359,0.75,0.366,0.054,-0.111,-0.25,-0.00911,-0.648,0.509,0.735,0.111,-0.0557,0.177,0.25,-0.195,-0.316,-0.256,0.207,0.0359,-0.0419,0.135,-0.6,-0.0452,0.0111,-0.187,-0.391,0.604,-0.369,-0.135,-0.255,0.429,0.0921,0.374,-0.132,0.185,0.0455,-0.0411,-0.0444,-0.45,0.0461,-0.18,-0.275,-0.139,0.00855,0.527,-0.796,0.932,0.38,-0.0896,0.68,0.101,0.0366,-0.151,0.12,0.125,0.0119,0.142,-0.832,-0.576,-0.533,-0.798,1.17,0.133,0.504,0.0493,0.282,0.538,0.708,0.0791,0.225,-0.0922,0.189,-0.0425,0.383,0.0952,-0.0109,-0.0629,0.287,-0.1,-1.17,-0.253,-0.0755,-0.184,-0.399,0.568,-0.383,0.475,-0.477,0.703,-0.333,-0.232,0.194,0.829,-0.513,0.0713,-0.216,1.32,-0.352,0.0711,0.4,0.277,-0.00857,-0.297,0.00821,0.149,0.103,0.0177,0.164,0.202,-0.058,0.265,-0.14,0.178,-0.426,-1.8,0.262,-0.152,-0.0927,0.127,0.543,0.00837,-0.249,-0.573,-0.107,-0.0492,-0.836,-0.131,0.539,0.381,-0.229,0.378,0.0887,-0.148,-0.437,-0.114,0.111,0.0313,-0.289,0.194,-0.104,0.236,0.00767,-0.836,-0.135,-0.27,0.396,-0.32,-0.235,1.48,0.247,1.09,-0.0529,0.17,-0.337,0.486,0.354,-0.369,0.539,-0.568,0.54,-0.318,-0.0512,-0.121,-0.498,0.256,0.547,0.00846,0.0921,-0.0832,0.18,0.562,0.172,-0.666,-0.415,-0.146,0.0792,1.01,-0.13,-0.134,0.425,-0.223,0.0159,0.171,0.318,0.386,-0.063};
float f4_2_bias[64] = {0.657,-0.429,0.304,0.179,0.068,0.0257,0.572,0.246,0.192,0.676,0.418,0.496,0.113,0.221,0.263,0.0731,0.394,0.408,-0.428,-0.242,0.0905,0.245,0.0924,0.087,-0.0231,-0.572,-0.181,0.72,0.388,-0.285,0.174,0.192,-0.0199,-0.266,0.036,-0.0878,0.292,0.107,0.299,0.514,0.294,0.164,0.355,0.205,0.515,0.252,-0.144,0.157,0.247,0.343,0.22,0.238,0.129,-0.685,0.298,0.336,0.58,0.0626,0.548,0.464,-0.295,0.106,0.182,0.0424};

float f5_1_weight[64*64*1*1] = {-0.0331,-0.0177,-0.0499,0.00558,0.151,0.0964,-0.177,-0.00186,0.0955,-0.102,-0.0556,0.0403,-0.0385,0.00122,0.01,0.0753,9.94e-05,-0.0584,-0.158,0.288,0.147,0.109,0.099,0.104,0.109,0.0836,0.0582,0.0672,-0.0766,0.09,-0.194,0.00882,0.00147,-0.0361,0.00304,-0.0107,-0.0458,0.0194,-0.0376,-0.109,-0.0116,-0.0283,-0.00292,0.249,0.0258,-0.147,-0.0237,-0.012,0.0647,0.0153,0.0452,0.105,0.133,0.219,0.172,0.116,-0.103,0.117,-0.0453,0.0815,0.123,0.0825,-0.0482,0.0702,-0.117,-0.0705,0.189,-0.0509,0.134,0.112,0.102,-0.0222,0.0341,-0.0926,0.11,0.101,-0.143,0.0339,0.137,0.0328,0.192,0.144,-0.156,0.0561,0.134,-0.029,0.352,-0.0402,0.0732,-0.0708,-0.193,-0.166,0.104,0.228,-0.168,0.0688,-0.252,0.0307,0.0449,-0.112,-0.0511,-0.0485,-0.0927,0.0359,0.0472,-0.0136,-0.0254,0.0316,0.109,0.0997,0.161,0.0684,0.185,-0.201,-0.149,-0.0619,0.0164,0.0175,-0.0914,0.0706,0.0281,-0.096,0.0748,0.266,0.19,0.0422,-0.108,-0.0547,0.206,-0.157,-0.126,-0.103,-0.0598,-0.174,0.123,-0.0175,-0.0486,-0.0669,0.0858,-0.0516,0.0253,0.0272,0.00685,-0.0406,0.203,-0.135,0.101,-0.155,-0.0138,0.00651,-0.0524,0.157,-0.0328,-0.0897,-0.0594,0.0492,-0.074,-0.127,0.0298,-0.113,0.0778,-0.0301,-0.258,-0.0598,-0.0756,0.241,0.00664,0.0327,-0.119,0.128,-0.0129,0.101,-0.121,0.117,-0.111,-0.163,-0.0952,-0.00299,-0.15,-0.0054,-0.097,-0.0629,0.238,0.0588,0.109,-0.044,0.0748,0.0867,-0.0758,-0.0761,-0.0161,-0.0393,-0.00264,-0.1,-0.0711,-0.109,0.173,0.00148,0.083,-0.0669,0.157,-0.107,-0.0377,0.068,0.112,-0.0296,0.0224,0.0789,-0.00815,0.00491,-0.076,0.0229,0.204,-0.0835,0.000161,-0.00861,0.32,0.00109,0.245,-0.0394,-0.0517,0.00725,0.0178,0.0317,-0.0607,0.0341,0.126,-0.177,-0.0157,0.0556,0.0464,0.231,0.0293,-0.141,0.0374,0.111,0.13,-0.0434,-0.131,0.134,-0.149,0.0768,-0.139,0.246,0.0746,0.152,0.0973,0.173,0.0454,-0.131,-0.108,-0.0426,0.0283,0.0369,0.105,0.0337,-0.144,0.0458,0.126,0.12,0.141,-0.0424,0.0746,0.0727,-0.0452,-0.0076,-0.177,0.0341,0.0435,0.0502,-0.0935,0.00333,0.117,0.0641,-0.00535,0.00611,0.0352,0.0515,0.0564,0.107,0.068,0.199,0.101,0.197,0.0778,0.119,-0.0699,0.056,-0.0463,0.0762,0.14,-0.177,-0.203,0.0223,-0.143,0.0489,0.0729,-0.109,0.0342,0.0309,0.214,-0.0118,0.0519,0.0437,-0.209,0.0384,-0.0317,0.102,0.221,0.113,-0.153,-0.294,0.0271,0.147,-0.187,0.176,0.0578,0.183,-0.0264,-0.0627,0.0337,0.141,-0.0608,-0.0388,-0.00781,-0.0212,-0.0775,-0.0698,-0.0312,0.272,-0.227,0.0607,-0.109,0.0874,-0.132,-0.134,-0.0848,-0.0775,-0.0847,-0.0567,0.043,-0.119,-0.0103,-0.107,-0.00445,-0.0605,-0.0603,0.0415,0.11,-0.21,-0.0112,-0.148,0.159,-0.0156,-0.226,-0.0396,-0.0238,-0.032,-0.00125,0.0399,-0.00863,-0.0393,0.0742,-0.0618,-0.0475,-0.279,0.00821,0.0247,0.0976,0.166,0.00617,0.099,-0.122,-0.000973,0.165,0.0458,0.173,-0.0566,-0.129,0.168,-0.0497,-0.0765,0.0133,0.0678,0.109,-0.0966,-0.00312,-0.0566,0.0443,-0.112,0.016,0.214,-0.136,-0.172,-0.117,0.279,-0.0247,0.041,-0.153,-0.0861,0.0346,-0.123,-0.034,-0.0116,-0.236,0.175,-0.0677,-0.0855,-0.0216,-0.0103,-0.0313,0.147,0.000949,-0.102,0.0165,-0.233,-0.027,0.0241,0.054,0.128,0.116,0.0121,-0.0959,0.0257,0.144,0.0159,-0.113,-0.0165,-0.0998,-0.0852,-0.0139,0.155,0.23,0.00011,-0.0436,-0.122,0.00795,-0.0903,0.0344,0.0571,0.0166,-0.0522,0.112,0.185,-0.0258,0.189,-0.114,-0.126,-0.1,-0.00557,0.0763,-0.00711,-0.194,-0.0289,0.0222,0.0183,-0.0265,-0.0116,-0.0491,0.0384,-0.125,0.12,-0.0911,-0.189,-0.00377,0.058,0.0406,-0.162,-0.141,0.0251,-0.0126,0.00322,0.0602,0.0335,0.00837,-0.0342,-0.157,-0.119,0.0959,0.12,0.0404,0.0173,0.112,0.0445,-0.176,0.0231,-0.02,-0.236,-0.122,0.14,-0.244,0.12,-0.184,0.0811,-0.0989,0.048,-0.0692,-0.0218,-0.154,-0.0309,-0.0414,-0.00462,-0.119,0.211,0.054,-0.132,-0.0615,0.0239,-0.132,-0.169,0.0911,0.121,-0.115,0.106,-0.0184,-0.0471,0.152,0.0571,-0.268,-0.0271,0.0139,-0.126,-0.196,0.104,-0.244,-0.0225,0.124,0.0744,-0.098,-0.0298,-0.145,0.193,0.065,0.0202,0.0653,-0.0594,-0.00346,0.0219,0.105,0.0818,-0.0843,0.105,-0.0699,-0.0246,0.115,-0.118,0.00532,-0.0232,0.0456,0.00949,0.0149,-0.164,0.0512,-0.0699,0.105,-0.0575,0.015,-0.0982,0.113,0.0461,0.0529,0.0487,0.0166,0.0651,0.127,0.273,-0.0208,0.141,-0.179,0.0825,0.0466,-0.0142,0.105,-0.0353,-0.137,-0.00222,0.118,-0.123,0.172,-0.12,0.0817,0.0188,-0.0726,-0.101,0.0642,0.163,0.0213,0.197,0.0994,-0.0803,0.17,0.119,0.0324,0.026,0.0658,0.0221,0.0653,-0.0913,0.0299,-0.00121,-0.0459,-0.291,0.0229,0.212,0.113,0.00575,0.114,0.0708,0.226,-0.00888,0.131,0.0987,0.11,0.0162,-0.0337,-0.142,0.000482,-0.0109,-0.0065,-0.0413,-0.141,-0.0077,-0.0679,-0.114,-0.0817,-0.0129,0.19,0.0432,0.0323,-0.0385,-0.0748,-0.0363,0.00666,-0.0233,0.0494,-0.0886,0.0792,0.0893,-0.101,0.0371,0.0936,0.0382,-0.0342,-0.0059,0.0646,0.0352,0.0422,-0.00289,-0.213,0.0954,0.0539,0.133,0.144,0.019,-0.108,-0.0312,-0.0568,0.0167,0.0469,0.0626,0.108,0.000571,0.111,-0.0147,0.149,0.0555,-0.0199,0.0399,0.0161,-0.108,0.115,-0.0736,0.114,0.0131,-0.113,-0.0052,0.0224,0.0104,0.0546,0.187,-0.0545,0.0151,0.145,-0.00475,0.0351,-0.0937,-0.0666,0.0734,-0.0331,0.321,0.0254,0.0332,0.0391,0.0388,0.0784,0.0341,-0.0671,0.208,0.0361,0.0201,0.089,0.121,0.00872,-0.106,0.0495,0.0241,0.112,-0.152,0.0474,0.194,0.00447,0.0475,-0.377,0.161,-0.0423,-0.236,-0.0408,0.0324,-0.179,-0.135,0.0149,0.00365,-0.0588,0.131,0.0335,0.162,0.00799,-0.108,-0.0574,-0.14,0.137,-0.0569,-0.179,-0.247,-0.187,0.0801,-0.115,-0.125,0.136,-0.0119,-0.0066,-0.00103,-0.0465,-0.0946,-0.102,0.0272,0.0386,-0.0257,-0.0227,0.000203,0.0908,0.00964,0.0502,-0.0466,-0.111,-0.0439,0.0656,-0.0422,-0.0361,0.0679,-0.0367,-0.0396,0.0295,0.0261,-0.0328,-0.0366,-0.0697,0.0162,-0.0738,0.00377,0.052,0.00777,0.00638,0.0564,-0.0246,0.068,-0.0262,-0.0225,-0.0183,0.0855,-0.155,-0.105,-0.0223,0.089,-0.0687,-0.101,0.117,-0.0247,-0.0431,0.317,-0.115,-0.0391,-0.0266,0.255,0.127,-0.00796,-0.131,0.186,-0.0745,0.298,0.102,0.0078,-0.052,-0.0548,-0.06,0.164,-0.201,0.0839,0.0881,-0.193,-0.153,0.126,0.118,-0.0328,-0.0814,-0.174,0.0825,-0.146,-0.0315,0.213,0.129,-0.0847,-0.0844,0.237,0.189,0.01,-0.0361,-0.162,0.0816,0.0272,0.0334,-0.163,3.01e-05,-0.123,0.0327,0.0847,-0.0236,-0.0429,0.0192,-0.123,0.0903,-0.148,0.111,-0.0767,0.137,0.128,-0.0382,0.0414,-0.0353,-0.0781,0.079,0.00184,0.0275,0.104,0.0207,0.503,-0.182,0.00949,0.00435,-0.0849,0.0744,0.114,-0.0186,0.109,0.00243,0.0544,-0.0167,0.0432,0.0318,-0.00536,0.0087,0.0734,-0.208,0.00522,0.199,0.337,0.00837,0.154,0.0342,0.0188,-0.000686,0.152,-0.0487,-0.0856,-0.0427,0.0323,-0.0684,0.00197,-0.0195,-0.0457,-0.169,0.137,0.00731,-0.00346,0.0628,0.0768,0.0674,-0.219,-0.119,0.263,-0.0472,0.0542,0.0738,-0.131,-0.0481,0.0757,0.00435,-0.168,0.193,-0.0291,-0.139,-0.0315,0.0252,-0.0905,0.121,-0.123,-0.189,-0.182,-0.0257,0.0103,0.0305,-0.0158,-0.059,0.108,0.0558,-0.0291,0.0593,-0.118,0.0121,0.0371,-0.11,0.103,0.0198,0.0775,-0.0428,-0.119,-0.0712,0.0215,0.0788,0.145,-0.123,0.115,-0.194,0.108,-0.216,-0.0683,0.0425,0.025,-0.21,-0.0855,0.145,0.0437,0.167,-0.000751,0.000228,0.0184,-0.0687,-0.0806,-0.0231,-0.0369,0.14,-0.138,-0.0122,-0.194,-0.226,-0.058,-0.263,0.0953,-0.114,-0.0278,0.305,0.0179,0.0153,0.0326,0.0202,-0.169,0.036,0.0354,0.147,-0.162,-0.139,0.0748,-0.16,-0.0166,-0.0587,0.0125,-0.00197,-0.0802,0.0119,-0.0711,0.0491,0.0495,-0.135,0.0608,-0.0338,-0.0398,0.0544,0.015,-0.0623,0.159,-0.0008,0.191,-0.0426,-0.165,-0.136,0.0873,-0.06,-0.0182,0.0759,-0.0693,0.0798,0.137,-0.251,-0.0352,-0.0781,0.0502,-0.106,-0.00403,-0.198,-0.0741,-0.165,-0.147,0.0295,-0.0523,0.154,0.0259,0.0247,0.0144,0.0662,-0.0987,0.041,-0.222,0.0284,-0.0947,-0.189,-0.0789,0.0232,-0.16,0.0398,-0.213,-0.0197,-0.0952,-0.0699,-0.00664,-0.0127,0.0649,0.189,0.2,-0.0257,0.0955,0.0726,-0.000229,0.154,0.0556,-0.0112,0.171,0.0331,0.00164,-0.143,-0.0157,0.0813,-0.151,0.0554,-0.222,-0.0152,0.0298,0.177,0.012,0.0863,0.22,-0.0336,0.148,-0.186,-0.0831,0.0814,-0.0141,-0.109,-0.159,0.00384,-0.03,0.032,0.0487,0.00657,0.00269,-0.092,-0.175,-0.041,-0.233,-0.132,0.115,-0.161,-0.0144,0.0996,0.0643,0.0895,-0.128,-0.0176,0.12,0.0198,-0.25,0.0414,-0.0332,-0.00396,0.155,-0.0399,-0.0984,0.0309,0.0486,0.0817,-0.072,-0.0163,-0.0218,0.0339,0.0611,-0.0257,0.0551,0.0302,0.0518,0.0431,0.0471,0.137,-0.0997,0.194,0.0322,0.00276,-0.0427,0.0493,0.0362,-0.0896,-0.0474,0.226,-0.0932,-0.158,0.0625,-0.047,-0.00864,-0.0427,-0.119,0.038,-0.00905,-0.0726,-0.187,0.0125,-0.036,0.0516,0.0907,-0.137,-0.0256,-0.262,0.0104,-0.0125,-0.0246,-0.0945,0.149,0.0356,-0.0732,0.106,0.059,-0.162,-0.0734,-0.0161,-0.0769,-0.173,0.121,-0.201,0.0176,0.0587,0.065,-0.161,-0.0968,-0.122,0.0984,0.0758,-0.0281,0.063,-0.0949,-0.0837,-0.0562,0.158,-0.0189,-0.0175,0.0462,-0.0137,0.0266,0.114,-0.153,-0.022,0.0269,0.0337,-0.0566,0.0464,-0.0831,0.038,-0.0932,0.0771,-0.00714,-0.029,-0.0389,0.102,0.107,0.0252,0.0462,0.0475,0.0141,0.106,0.12,-0.048,0.0287,-0.183,0.0962,0.00021,0.017,0.0444,0.00501,-0.0917,0.0515,0.121,0.174,0.0186,-0.224,0.0372,-0.256,-0.0151,0.127,0.0841,-0.0184,-0.116,0.153,-0.145,0.203,0.0565,0.0841,-0.15,0.0313,-0.141,0.0831,0.118,0.0799,0.189,0.132,0.0952,0.0178,0.0777,0.129,-0.256,0.0754,0.00621,0.0709,-0.0775,0.13,-0.0917,0.0423,0.109,0.0373,0.0135,-0.0613,-0.0729,0.0352,0.101,-0.0975,0.00811,-0.0164,0.148,0.000374,0.3,0.0924,-0.251,-0.0099,0.02,0.158,0.107,-0.011,-0.0466,0.00563,0.105,-0.151,0.118,0.081,-0.204,-0.00607,0.0319,-0.0488,0.0207,0.0663,-0.216,0.131,-0.049,-0.106,-0.213,-0.0246,-0.0127,0.0684,0.0049,0.0465,-0.158,-0.0241,0.00927,-0.0692,-0.104,0.00298,0.0503,-0.0516,0.167,-0.0702,-0.145,-0.0723,-0.0405,-0.178,0.0438,-0.137,0.0355,0.0825,-0.027,0.0692,-0.00274,-0.0386,-0.0525,-0.0111,0.0127,0.269,-0.209,0.135,-0.0652,0.151,0.135,-0.22,-0.149,-0.123,-0.0905,0.00435,-0.0113,0.215,-0.186,-0.0259,0.0451,0.00939,-0.0673,0.0522,-0.0225,-0.109,-0.0776,0.0316,0.0426,0.0657,-0.0221,0.0371,0.11,0.0749,-0.143,-0.0476,-0.134,0.174,0.00125,-0.0631,-0.0232,-0.0123,-0.0593,0.0445,-0.0459,-0.0839,-0.0162,0.0179,-0.133,-0.0288,0.0466,0.0582,-8.63e-06,0.0322,0.0509,0.0792,0.00372,-0.0474,-0.238,0.088,-0.016,0.118,-0.0592,0.0977,-0.071,0.0401,0.00532,-0.0588,-0.155,-0.0294,0.00116,-0.0173,-0.0448,0.198,-0.2,-0.0891,-0.027,0.0694,-0.0104,-0.0552,0.011,-0.113,0.00224,0.0648,0.0421,-0.0804,-0.0401,-0.111,-0.0827,-0.176,0.116,-0.039,0.012,0.147,0.149,0.0892,0.209,0.0839,-0.125,-0.0059,-0.0636,-0.0487,0.0418,-0.353,0.0278,0.0129,0.00931,0.0665,-0.172,0.0616,-0.0957,0.147,-0.0039,-0.113,-0.00112,0.161,-0.0855,-0.0611,-0.0593,-0.133,0.00508,-0.0587,0.0848,-0.121,-0.0655,0.0532,0.166,-0.0825,0.000597,-0.02,0.0929,0.0646,0.179,0.269,-0.0713,-0.0159,0.023,-0.0114,-0.18,0.0782,-0.0774,-0.0648,-0.0272,-0.182,-0.19,-0.197,-0.0394,-0.0161,0.0259,-0.114,-0.201,-0.123,-0.0319,0.0936,-0.0597,-0.0234,-0.183,-0.326,-0.0889,-0.132,-0.0137,-0.2,-0.058,-0.0407,-0.102,0.205,-0.0752,0.0478,-0.0656,-0.0822,-0.0631,-0.167,-0.17,0.0553,0.0481,0.0125,0.136,-0.00274,0.00367,-0.0764,-0.0237,0.0715,-0.249,-0.052,-0.0529,0.0118,-0.0992,-0.176,-0.0126,0.191,0.138,0.0839,-0.165,0.21,0.101,0.137,0.175,-0.0839,0.205,0.0746,-0.0268,-0.0908,-0.0436,0.0635,0.0189,-0.26,-0.0747,0.0425,-0.0591,-0.0422,-0.0825,-0.0847,0.2,-0.0595,-0.00989,-0.0536,0.2,0.144,-0.0912,0.222,-0.109,-0.0267,-0.0916,0.0991,0.129,0.00103,0.0599,-0.0924,0.0723,0.00911,0.0794,0.0546,0.193,-0.00142,-0.102,-0.108,0.0912,0.109,-0.0536,0.141,0.00104,0.0767,-0.0946,-0.0104,-0.015,-0.0636,-0.106,-0.224,-0.00232,-0.241,0.0267,-0.216,0.119,-0.0964,-0.117,0.0315,0.00196,0.0306,0.0987,0.0418,-0.147,-0.0676,-0.0872,0.0229,-0.15,-0.195,-0.174,-0.151,0.0168,0.0607,-0.125,-0.049,-0.0618,-0.0234,-0.00836,-0.28,-0.121,-0.0301,0.21,-0.0725,-0.0769,0.00416,-0.182,0.00308,-0.0522,-0.0358,-0.0131,0.0301,-0.152,0.109,-0.0662,-0.149,-0.0924,-0.0648,-0.0593,0.107,0.0925,0.0258,-0.144,0.137,-0.229,0.0118,0.0191,0.00845,0.0404,-0.108,0.00513,0.0365,-0.0688,0.0873,0.0433,0.0907,0.0637,0.164,-0.103,0.00661,0.105,0.00447,-0.0508,0.321,-0.0806,-0.000757,0.156,-0.101,0.0425,0.141,-0.193,-0.121,-0.00712,-0.049,-0.0227,0.0306,-0.0435,0.0461,0.00831,0.0633,-0.193,-0.0287,-0.0907,-0.0515,-0.133,0.00387,-0.126,-0.0281,0.00662,-0.132,-0.118,-0.12,-0.188,0.0672,-0.0693,0.0919,0.102,-0.173,0.0379,-0.23,0.1,0.0665,0.0447,-0.0399,-0.111,-0.0314,-0.0314,-0.0344,-0.041,-0.0162,-0.109,-0.0382,0.101,0.117,0.11,-0.0431,0.044,0.0803,0.0284,-0.215,-0.0878,-0.0443,-0.119,0.0565,0.0294,0.0588,0.145,0.0989,0.0348,0.0791,0.0449,0.249,0.167,0.105,0.0439,0.0963,-0.101,0.035,-0.0841,0.0283,0.103,-0.0568,0.108,0.0587,-0.0734,0.000405,0.106,0.105,0.117,-0.013,0.0289,0.174,-0.0601,0.0504,0.168,0.178,-0.0637,0.0633,0.092,0.0305,0.0417,-0.024,0.0454,0.0976,-0.000707,0.0875,0.281,0.0767,-0.0719,-0.0683,0.0862,0.0708,-0.0428,0.0404,-0.247,0.0421,0.0983,0.0717,0.0728,0.0173,0.163,0.181,-0.0194,0.0163,0.0327,-0.0122,-0.019,0.108,0.113,0.0577,-0.0917,-0.0126,-0.182,0.113,0.0255,-0.104,-0.0428,0.0627,0.0821,-0.0249,-0.019,-0.192,-0.0238,0.0356,-0.0351,-0.0251,-0.141,0.0737,0.0162,-0.0864,-0.0274,0.0963,-0.0127,-0.0341,0.0333,-0.0014,-0.262,-0.262,0.0497,0.117,-0.0494,0.2,0.11,-0.162,0.0266,-0.0662,0.0677,0.213,-0.14,-0.0816,-0.11,0.062,-0.0397,-0.144,0.154,0.0867,0.0549,0.0213,0.104,0.127,-0.0891,0.0282,-0.0216,0.156,-0.0901,0.161,-0.13,-0.214,-0.0869,0.0671,0.0919,-0.0684,-0.0327,-0.204,-0.0145,0.0312,0.0466,0.0923,0.106,-0.00801,-0.151,-0.0274,-0.226,0.0605,-0.107,0.0848,-0.044,0.0145,-0.126,0.114,-0.00161,-0.0909,-0.0132,-0.0244,-0.0948,-0.0193,0.0138,-0.072,-0.131,0.00179,0.0253,0.111,-0.0584,-0.0997,0.174,-0.0792,0.0376,0.0392,0.0571,0.0434,-0.0781,-0.206,0.0452,-0.0455,0.0478,0.0252,-0.18,0.0385,-0.0797,0.00129,-0.0538,0.0752,0.136,-0.0376,-0.141,-0.01,-0.197,0.0986,-0.0363,0.0912,0.129,0.122,0.0202,0.108,-0.16,0.0248,-0.158,0.0575,0.11,-0.205,0.127,-0.51,-0.188,-0.295,0.0752,0.17,0.127,-0.0899,0.0901,0.21,-0.019,0.0651,-0.16,-0.0907,-0.0673,0.0359,-0.0625,-0.123,0.117,0.105,0.0684,0.0112,0.0201,0.0799,0.0728,0.124,-0.0332,0.0403,0.0756,-0.021,0.0683,-0.0463,0.101,-0.0246,-0.0471,-0.0613,0.00798,-0.083,0.0496,-0.0757,0.126,-0.0053,0.182,-0.151,0.197,0.098,0.0886,-0.0639,-0.155,0.123,0.0983,-0.106,0.0672,0.096,0.143,-0.0036,0.0139,-0.114,0.0866,0.0468,-0.241,0.0843,-0.0407,-0.0334,0.00883,-0.194,0.0806,0.0492,-0.0897,0.0465,-0.0341,-0.0112,-0.00119,-0.111,0.148,0.0851,0.0853,-0.224,0.00298,-0.0492,0.045,-0.0109,0.0643,0.214,-0.00832,0.0703,-0.0136,0.0612,-0.124,0.0433,0.177,0.0482,-0.00934,0.149,-0.0245,0.144,0.107,0.051,0.0337,-0.0986,0.00811,-0.0917,0.0148,-0.0367,-0.0081,0.217,-0.0821,0.0847,0.00134,-0.0246,0.0557,-0.0487,0.00336,-0.12,-0.0873,0.0353,0.0304,-0.244,0.0706,-0.0991,0.322,0.0529,0.0241,-0.208,-0.0548,-0.141,0.146,0.00409,-0.262,0.0443,-0.053,-0.00218,-0.092,0.163,0.0199,0.0995,0.0354,0.00883,-0.24,-0.132,0.0137,0.0396,0.00185,0.0465,-0.0661,0.0244,-0.124,-0.0365,0.0068,-0.185,-0.0371,-0.0262,0.0367,0.0824,0.0375,-0.0574,-0.078,-0.0824,-0.0498,-0.15,-0.0618,-0.0579,0.114,-0.0546,-0.0482,0.0417,0.158,0.093,0.185,0.0224,0.0156,0.0728,-0.0515,-0.15,0.0926,0.00586,-0.0305,-0.0388,0.114,0.129,-0.0399,0.129,-0.188,-0.0179,0.0481,-0.163,0.00751,0.05,0.0498,-0.0691,-0.105,-0.00702,-0.184,0.0463,-0.00676,0.0173,-0.00719,0.082,-0.00832,0.168,0.136,-0.0158,-0.228,0.0727,-0.0792,-0.149,0.0112,-0.019,0.0324,-0.101,-0.109,-0.143,0.0711,0.012,-0.408,-0.139,0.00577,-0.111,-0.116,-0.0178,-0.0186,0.127,0.0336,0.0455,0.0491,0.0834,0.094,0.16,-0.0573,-0.136,-0.151,0.128,0.139,0.0869,0.0857,-0.106,0.0627,-0.101,-0.113,-0.105,-0.00845,0.218,0.0205,-0.087,-0.0295,0.0172,0.0569,-0.171,-0.226,-0.0809,0.0128,-0.0577,-0.0354,0.00891,0.251,-0.189,-0.0255,0.0618,-0.0928,0.0171,0.0258,-0.0192,-0.259,-0.151,0.0123,-0.0325,-0.0461,0.0461,0.0823,0.0727,0.131,0.0211,0.0478,-0.0157,-0.172,0.0607,0.0273,-0.102,-0.153,0.106,0.0495,0.0461,0.0631,-0.0341,-0.0104,-0.164,0.126,-0.0619,0.0241,0.114,-0.0899,0.0315,-0.149,0.107,-0.0813,-0.0348,-0.00499,0.141,0.15,-0.111,0.199,0.00774,-0.104,0.107,0.00597,-0.0647,-0.216,0.35,0.0144,-0.116,-0.102,-0.0872,-0.174,0.0153,0.0727,-0.00793,0.00478,0.05,0.0506,-0.0758,-0.108,0.058,-0.0721,-0.0141,-0.0057,0.0381,-0.17,-0.0287,0.116,-0.0816,-0.139,0.0878,-0.0419,-0.0472,-0.22,0.2,0.00053,0.0261,0.067,-0.0768,0.0292,-0.0406,-0.175,0.089,-0.0127,0.0719,-0.0803,-0.104,-0.0931,-0.023,0.0197,-0.0169,-0.0689,-0.0209,-0.081,0.0616,0.0129,-0.166,-0.0348,0.201,0.0311,0.0538,-0.0817,-0.19,-0.292,-0.0646,0.0137,0.13,-0.0184,-0.166,-0.0535,-0.00819,0.00396,0.0267,0.0155,0.0737,0.00237,-0.0424,0.204,-0.117,-0.0132,-0.0304,0.0497,-0.0988,0.0398,0.0848,-0.14,0.0625,0.061,-0.00128,-0.112,0.211,0.0742,0.0545,-0.0841,-0.00921,0.148,0.16,0.117,-0.107,0.0176,-0.25,-0.135,-0.0877,-0.0318,0.126,-0.0857,-0.0192,0.0818,0.00544,-0.0843,-0.13,-0.0681,0.0674,-0.038,0.151,-0.0863,-0.0766,-0.171,-0.062,0.0672,0.201,0.154,-0.00975,-0.0662,0.091,0.0967,-0.266,0.0256,-0.0745,0.0115,-0.116,0.00543,-0.116,-0.108,0.181,-0.0542,-0.112,0.0865,0.169,0.0403,0.0447,-0.0837,0.0119,0.0654,-0.0521,0.0522,0.0118,-0.00868,-0.00782,0.0345,0.0157,-0.13,-0.0557,-0.00373,-0.0269,0.0348,0.0275,-0.0249,-0.12,-0.185,-0.00982,-0.12,-0.0675,-0.0154,0.0597,0.212,0.0327,-0.0392,-0.00375,-0.0541,-0.0584,0.145,0.0124,0.0345,-0.131,0.136,-0.0536,-0.0688,0.0531,0.048,0.213,-0.182,-0.231,0.0184,0.0317,-0.0922,-0.107,-0.0715,0.00199,0.0849,0.0846,0.0515,0.0827,-0.0812,0.00597,-0.212,-0.0505,-0.0753,0.0863,0.0526,0.0621,-0.0774,-0.0846,0.00281,0.0273,0.112,-0.244,0.0429,-0.0237,0.14,0.075,-0.117,0.0509,-0.00608,-0.13,0.0737,0.0423,0.0945,-0.103,-0.0031,-0.0781,0.00927,0.132,0.15,0.0255,0.0604,-0.0444,0.116,0.0743,0.0148,-0.00768,0.0533,-0.0996,0.0709,0.108,0.0568,0.0194,0.14,0.256,-0.00136,-0.00201,0.0523,-0.0564,0.0577,-0.00627,-0.0186,0.0297,-0.0794,-0.0873,0.072,0.0389,-0.0681,-0.105,-0.229,-0.0972,0.0475,-0.0972,-0.199,-0.141,-0.126,-0.183,-0.139,-0.00986,-0.0916,-0.217,-0.218,0.0929,-0.039,0.0446,0.118,0.199,-0.126,0.0985,-0.0949,0.165,0.0323,0.152,-0.0939,-0.0604,-0.071,-0.0313,-0.0884,-0.164,-0.158,-0.192,-0.171,-0.00778,-0.113,0.0244,0.101,-0.154,-0.0427,-0.253,-0.0122,0.0264,0.091,-0.0681,-0.00156,0.0349,-0.213,-0.0149,-0.0638,-0.0151,0.0531,0.163,0.0764,-0.135,-0.109,-0.031,-0.0713,0.087,0.0573,-0.0729,-0.138,0.00289,0.139,-0.0988,-0.0525,-0.15,-0.0264,0.258,-0.0288,-0.145,-0.00518,-0.0977,0.0416,-0.0956,-0.0474,-0.119,-0.14,-0.0355,-0.183,0.0332,-0.0785,0.0319,0.0666,0.0272,-0.123,-0.139,-0.0112,-0.0215,0.215,0.123,0.022,0.0375,-0.0444,-0.0358,0.00502,-0.213,-0.0117,0.0501,0.0653,-0.0119,-0.0807,-0.0661,-0.173,-0.0386,-0.00996,-0.15,-0.0694,0.00777,0.154,-0.0573,0.0578,-0.211,-0.114,-0.0324,0.42,-0.142,-0.046,0.0457,0.0314,0.0538,0.0734,0.0253,-0.00181,-0.141,-0.00229,0.0854,0.125,-0.025,0.0642,0.0508,-0.152,-0.118,-0.0981,-0.149,-0.128,0.0875,0.0577,-0.194,-0.00918,-0.0869,0.216,0.0721,0.0603,-0.0962,0.099,0.0119,0.104,0.014,-0.0681,-0.0142,-0.0761,-0.0302,-0.0179,-0.0539,0.0849,0.0187,-0.000286,0.00133,0.163,0.101,0.0853,0.0369,-0.0934,-0.169,0.117,0.0173,0.0464,-0.0861,0.00675,0.0683,-0.0165,-0.00361,0.0688,0.0217,-0.115,-0.189,-0.0766,-0.0148,-0.0608,-0.0145,0.129,-0.134,0.0981,-0.0169,0.0397,0.0614,0.00905,-0.0374,0.0173,-0.152,-0.198,0.151,0.11,0.0733,0.203,0.111,0.00806,-0.0668,-0.045,0.151,0.325,0.0457,0.136,0.0605,-0.0766,-0.0216,-0.132,-0.117,-0.128,-0.0221,-0.0425,0.146,-0.0983,0.0977,-0.00596,-0.0543,0.151,0.0257,0.00601,-0.0303,-0.114,0.0208,-0.129,0.172,-0.0168,-0.000152,-0.0237,-0.0632,0.117,0.111,-0.0753,0.0249,0.0178,0.0232,0.041,-0.0701,-0.0277,-0.153,-0.0902,0.0961,0.219,-0.0692,-0.184,0.128,-0.0593,0.0939,-0.0158,0.0201,0.0753,-0.169,-0.0904,-0.00913,0.0323,0.123,-0.339,0.0717,-0.298,-0.0223,-0.103,-0.0676,-0.0638,-0.124,-0.00377,-0.00592,0.000758,0.00229,-0.119,0.00349,0.06,-0.0703,0.04,-0.0237,-0.115,0.0115,0.162,0.0438,0.0196,-0.0854,-0.0388,-0.129,-0.0661,-0.109,-0.0445,0.204,0.0742,0.00643,0.201,0.0146,0.0819,-0.108,-0.115,-0.245,-0.0349,0.0974,0.0403,-0.131,0.0988,-0.0569,-0.0549,-0.0923,-0.0323,-0.00923,0.106,-0.0499,-0.0805,-0.154,0.0105,-0.0838,-0.0849,-0.108,-0.00371,-0.0799,-0.0225,0.197,0.219,0.136,-0.234,-0.122,0.0896,-0.0889,0.0371,0.254,0.0993,0.039,0.1,-0.133,0.0694,0.153,-0.227,-0.025,-0.0822,-0.156,-0.0707,0.0343,-0.00673,0.249,0.0855,0.0917,-0.00992,-0.109,0.0192,0.0485,0.0158,-0.0344,-0.0671,0.056,0.0629,-0.129,-0.0204,0.241,-0.0402,0.0314,-0.0342,0.000125,0.00976,0.131,-0.0732,-0.102,-0.114,-0.117,-0.133,-0.104,0.0223,-0.0257,-0.0909,0.0633,0.0709,-0.306,-0.149,-0.0966,-0.115,-0.194,0.0328,0.0755,-0.053,-0.00595,0.0363,-0.106,0.108,-0.0513,0.0141,0.145,0.0754,0.0397,0.0701,0.0938,-0.102,0.0544,-0.0727,0.0912,0.126,-0.208,0.0472,-0.143,-0.0112,-0.0101,0.113,-0.00619,-0.0548,-0.0313,0.0948,-0.0343,0.169,-0.0193,0.0284,0.0489,0.0856,0.00543,0.0359,-0.0308,0.139,0.161,0.0484,0.0224,0.134,-0.0641,-0.0218,0.0874,0.0465,0.00786,-0.0862,0.153,-0.0208,0.219,-0.0402,0.0186,-0.0372,-0.0788,0.049,0.144,0.0198,-0.0758,-0.0428,0.0789,0.0411,-0.0629,-0.0892,0.019,0.0416,-0.00161,-0.0202,-0.11,0.0301,-0.0753,-0.0019,0.159,0.0292,-0.0634,-0.102,-0.0427,-0.0215,-0.054,-0.055,-0.231,-0.0527,0.0941,0.037,-0.0982,0.0412,-0.0913,0.0183,-0.0741,0.0454,-0.0388,0.0759,0.124,-0.00246,0.0582,0.0213,0.0127,-0.169,0.0434,0.0206,0.0297,-0.0305,-0.0769,0.198,0.00228,-0.0968,-0.0563,0.0444,-0.0509,0.0177,-0.186,-0.0488,0.0504,-0.116,-0.0557,-0.0235,0.106,-0.023,0.00529,0.242,0.0159,-0.0605,-0.216,0.02,0.0575,-0.0711,-0.00145,0.0424,-0.016,0.00272,-0.142,0.0527,0.0547,0.0339,-0.184,0.0333,-0.0533,-0.113,0.0722,-0.102,-0.169,0.216,-0.0626,-0.0578,0.0794,-0.00484,0.0819,0.0302,-0.0949,0.0678,-0.0195,-0.171,0.0954,0.139,-0.0104,0.255,0.0678,-0.0833,-0.077,-0.138,-0.196,0.071,0.066,-0.0103,0.0641,-0.0475,-0.0232,0.107,0.235,-0.297,-0.0616,-0.0119,-0.126,0.178,0.0172,-0.0882,-0.0189,0.149,-0.0285,0.0428,-0.00925,0.0249,0.0732,-0.0748,0.0462,0.0833,0.112,0.153,-0.0623,0.0831,0.0312,0.113,0.00143,-0.0166,-0.0363,-0.0671,-0.0422,-0.085,0.0198,0.0536,0.127,-0.0334,0.17,0.224,-0.0515,-0.102,0.0216,0.0248,0.00525,0.0745,0.0891,-0.0106,0.0241,0.0338,-0.0901,0.0703,0.143,0.0041,0.0457,-0.0421,0.00421,0.117,0.0499,0.0269,0.0138,-0.0828,-0.04,0.0191,-0.0216,0.0784,0.103,0.214,-0.0562,0.232,-0.107,0.11,0.0371,-0.0599,0.104,-0.0741,0.233,0.0589,-0.0608,-0.0266,0.0971,0.0489,-0.0588,0.0757,0.157,0.267,-0.0253,0.108,0.0744,0.0403,-0.042,0.0409,-0.0755,-0.166,0.105,0.0453,0.0605,-0.0685,0.158,-0.068,-0.0941,-0.0318,-0.0377,-0.0143,0.104,-0.0146,0.0247,0.0231,0.246,0.0889,0.0563,0.132,0.0919,-0.181,-0.04,-0.0499,-0.0212,0.134,-0.00631,-0.0857,-0.00586,0.0382,0.11,0.0455,0.05,-0.0883,0.245,-0.0761,-0.0865,-0.105,-0.0323,0.0614,0.0677,-0.217,0.196,-0.0143,-0.148,0.0581,0.0548,-0.0772,-0.0381,0.178,0.207,0.117,0.0889,0.155,-0.0927,-0.0884,0.14,0.155,-0.0438,0.153,0.205,0.0642,0.0899,-0.102,-0.0405,-0.184,0.0214,-0.158,0.104,-0.0548,-0.133,-0.112,0.129,-0.0447,-0.152,-0.0163,0.178,0.184,0.12,0.0017,-0.0991,0.0256,0.0358,0.0905,-0.0343,0.0895,0.00497,-0.0456,-0.116,-0.0209,0.132,-0.0694,-0.0947,-0.0533,0.2,0.0761,0.00234,-0.0645,0.088,0.22,-0.0617,0.149,0.00708,0.00574,-0.178,0.00953,-0.149,-0.025,0.0402,-0.0266,-0.255,-0.0379,-0.0984,0.0996,-0.187,-0.128,-0.0604,-0.0783,0.0184,0.00922,-0.105,0.0384,0.169,-0.0919,-0.0479,-0.139,-0.0505,0.109,-0.00732,-0.195,0.0584,0.0144,0.0362,0.169,0.0621,-0.144,0.0541,0.116,-0.0685,0.138,0.0349,-0.00463,-0.0735,0.132,-0.0429,0.0803,-0.277,-0.00307,-0.0123,-0.128,0.0151,0.00693,0.127,-0.123,0.206,0.00175,-0.0153,0.00633,0.115,-0.0164,0.162,-0.013,-0.0441,-0.0529,0.109,-0.136,-0.0239,-0.0799,-0.046,0.00614,-0.355,0.00655,0.078,-0.195,0.0629,-0.126,-0.0644,-0.152,0.0938,-0.055,-0.0894,0.16,-0.0117,0.0663,-0.0385,0.113,0.156,-0.0916,-0.0595,-0.0954,-0.0839,0.2,-0.168,-0.138,-0.0778,-0.106,-0.0352,0.0962,-0.0671,-0.14,0.071,0.146,-0.0917,0.0653,-0.0304,-0.0521,-0.0638,0.169,-0.0782,0.132,-0.147,-0.051,0.00135,-0.145,0.104,0.00456,0.00361,-0.0359,0.00657,0.0356,-0.121,-0.0121,-0.0339,0.0385,0.0436,-0.0698,-0.0286,-0.0956,0.0973,-0.000969,0.2,-0.0513,0.0943,-0.171,0.154,-0.119,0.178,0.00729,-0.0824,-0.216,-0.0691,-0.0149,0.00237,-0.131,-0.0352,0.114,-0.00391,0.127,-0.0653,0.0584,0.0737,-0.118,-0.0356,0.0938,0.102,0.145,0.0546,-0.165,0.0221,-0.222,0.0793,-0.158,-0.0157,0.0279,0.139,-0.0647,-0.0127,-0.105,0.0377,-0.173,-0.233,0.0303,-0.064,-0.136,-0.206,0.108,0.183,0.149,-0.0294,-0.125,-0.0641,-0.107,-0.137,-0.0205,0.0338,0.0124,-0.0794,0.059,-0.142,0.0216,-0.084,-0.0557,-0.127,-0.0667,-0.215,0.195,-0.00472,0.0254,0.0632,-0.0387,0.0387,0.0579,0.0395,0.0629,0.0337,0.0648,0.0233,0.103,0.0396,0.0697,-0.0445,-0.17,-0.0793,-0.179,0.115,-0.0853,0.0341,0.103,-0.169,-0.043,0.0272,0.014,-0.16,-0.179,0.0913,-6.24e-05,-0.236,-0.00964,0.0592,-0.0214,0.0768,-0.191,0.0553,0.168,0.0416,-0.0261,-0.0775,0.0536,-0.0456,0.0545,-0.0105,-0.0319,0.0659,-0.303,0.14,-0.126,-0.0536,0.0182,-0.177,0.0135,-0.055,-0.0229,0.0516,-0.0259,-0.128,0.091,-0.0252,-0.0475,-0.0289,-0.209,0.0547,0.119,-0.106,0.252,-0.237,-0.0943,-0.17,-0.0907,0.0379,-0.0655,0.107,-0.2,-0.117,0.0442,0.0127,0.0482,-0.256,0.12,0.0284,-0.0687,0.103,-0.0997,0.157,-0.0454,0.108,-0.118,-0.112,-0.139,-0.051,-0.0138,-0.0901,-0.187,0.144,0.00178,-0.136,-0.11,-0.0277,-0.0566,-0.0831,-0.0434,0.0822,0.0886,-0.113,-0.105,-0.0803,-0.0318,-0.18,-0.129,-0.0761,0.0173,0.0479,0.0122,-0.0481,0.143,-0.06,0.173,-0.0735,0.0311,0.134,-0.109,0.0158,0.0833,0.229,0.0951,-0.0988,0.151,-0.225,0.0693,0.00928,-0.0877,0.0617,-0.176,-0.0203,-0.00871,-0.0535,-0.123,-0.034,-0.0814,0.0174,0.112,0.0475,0.0924,-0.0245,-0.164,-0.221,-0.0341,-0.0387,-0.0796,0.13,-0.135,-0.0799,-0.113,-0.0278,-0.144,-0.031,-0.0722,0.111,-0.238,0.07,-0.125,0.0102,-0.0397,-0.0874,-0.13,-0.107,-0.0426,0.0174,-0.0401,-0.063,-0.0131,-0.0966,-0.0806,0.0021,0.183,0.023,-0.00453,-0.0152,0.101,-0.033,0.11,-0.089,-0.108,0.138,0.104,-0.076,-0.0236,0.124,0.00259,-0.122,0.0799,-0.102,-0.1,-0.122,0.00626,0.173,-0.0254,0.0505,-0.00223,0.0225,-0.0269,-0.029,-0.036,-0.0171,-0.0995,-0.0213,0.0773,-0.0398,-0.105,-0.0629,-0.038,0.145,0.00178,0.134,-0.00261,0.00213,-0.0177,0.0663,0.092,-0.0519,0.0204,-0.0738,-0.00541,0.0624,-0.0116,0.129,-0.154,0.0787,-0.0296,-0.0281,0.0226,0.109,0.0442,0.0413,0.0544,0.0699,0.0126,-0.0311,-0.0207,-0.088,0.0381,-0.184,-0.0431,-0.0793,-0.0203,0.00641,0.13,-0.000549,-0.00907,0.0521,0.00961,0.128,-0.113,0.0442,0.124,0.16,0.0955,0.0392,0.0121,-0.0765,0.0204,0.179,-0.0129,-0.0161,-0.174,0.0186,-0.0368,-0.166,-0.0326,-0.0611,0.177,0.162,0.0446,0.199,0.0381,0.0562,0.0984,-0.0221,-0.0374,-0.0822,-0.226,0.0504,-0.126,-0.00675,0.0614,-0.014,0.114,-0.104,-0.0527,0.0465,0.14,0.118,0.105,-0.231,0.0752,-0.0759,-0.131,-0.0434,-0.118,-0.149,-0.0265,0.159,0.038,-0.226,-0.0334,-0.143,0.0167,0.0157,-0.0104,-0.0498,-0.0752,0.178,0.205,-0.0937,-0.159,0.00963,-0.201,0.0908,0.199,0.0973,-0.0558,-0.0884,-0.223,0.123,-0.00507,-0.128,-0.113,-0.0391,0.000611,-0.142,0.0285,0.186,-0.0902,-0.324,-0.00555,0.0307,-0.0968,-0.194,-0.127,0.0265,-0.112,0.0692,-0.0139,0.104,0.107,0.0981,-0.032,0.0225,-0.0365,0.0495,-0.029,0.0672,-0.0974,-0.0921,-0.0156,0.0563,0.0763,-0.235,-0.0332,0.00698,0.0692,0.15,-0.0625,-0.0356,-0.151,0.154,0.113,0.00263,-0.276,0.177,0.0136,0.0645,0.089,0.0365,-0.0666,-0.0201,0.0342,0.082,-0.282,0.000287,-0.00575,-0.134,-0.0467,0.124,-0.0607,-0.0592,-0.111,-0.0321,-0.0566,0.05,-0.0647,0.0929,0.0452,0.0633,0.177,0.155,0.133,0.106,-0.0231,-0.0483,0.0161,0.0336,0.000996,-0.0256,0.204,-0.00364,0.0628,-0.143,0.11,-0.0582,-0.00252,0.0628,0.00845,0.0512,0.0836,-0.0557,0.193,0.193,0.0678,-0.158,-0.127,0.16,-0.0161,-0.0538,-0.258,-0.0596,0.0817,0.0473,-0.0906,-0.18,-0.0542,-0.0869,0.037,-0.187,-0.141,-0.152,-0.105,-0.0369,0.0105,0.0347,0.056,-0.0641,0.359,-0.0245,0.0132,0.11,0.103,-0.153,0.0565,0.0694,-0.0398,0.0046,0.00344,-0.0705,0.137,-0.104,-0.127,-0.0292,-0.0922,-0.0591,-0.147,-0.0099,-0.108,0.0166,-0.105,-0.143,-0.106,-0.0368,0.0263,-0.0249,-0.116,-0.0348,0.0672,-0.0447,0.179,0.0471,-0.224,-0.015,-0.0141,-0.00329,-0.102,-0.119,0.00804,0.0293,0.0289,-0.0198,-0.0108,0.0613,-0.0299,0.0312,0.01,-0.0409,-0.336,-0.0519,-0.125,-0.223,-0.0125,0.0368,0.00954,-0.0824,0.084,-0.0205,-0.118,-0.0176,0.175,-0.00588,0.0428,0.045,-0.0186,-0.0156,-0.0834,0.0259,-0.194,0.136,0.00782,-0.0188,-0.153,0.218,0.0962,-0.134,-0.0944,0.0798,0.0248,-0.0356,0.0889,-0.164,0.0593,-0.0233,0.11,0.0574,0.0161,0.182,-0.143,0.157,0.0481,0.159,0.0858,0.087,-0.0992,0.0157,0.0397,0.0599,0.0215,0.0812,0.105,0.0843,-0.0613,0.0938,-0.139,0.138,-0.0753,0.0507,-0.045,0.0353,0.0223,-0.000143,0.0896,0.078,0.0855,0.0767,0.062,0.0831,0.0229,0.0797,-0.0681,0.21,0.156,-0.0149,-0.0262,-0.297,-0.0683,0.0869,-0.0163,-0.142,0.0364,0.0493,0.0685,-0.0781,0.0671,0.169,0.083,0.0185,0.0284,-0.000445,0.124,0.138,-0.285,-0.102,-0.11,0.0993,-0.213,-0.145,0.15,0.0225,0.0394,0.11,-0.0932,-0.0423,0.0154,-0.00363,-0.214,0.0186,-0.0247,0.236,-0.0786,-0.293,0.104,0.0549,-0.151,-0.0393,-0.0652,0.000533,-0.146,-0.0194,-0.0518,-0.0147,0.0573,0.139,0.0969,0.0942,-0.0414,0.0332,-0.0958,-0.0653,0.0365,-0.0186,-0.132,-0.166,-0.0577,-0.0417,-0.0304,0.0609,0.107,0.0864,-0.172,0.0435,-0.257,-0.074,-0.11,0.0423,0.131,-0.0752,-0.163,0.13,0.021,-0.0415,-0.0702,-0.315,0.0479,-0.243,-0.0806,0.0653,0.0274,-0.12,-0.195,0.0282,-0.0821,-0.0857,0.00282,-0.12,0.109,0.0181,-0.0789,-0.0109,-0.188,-0.0883,0.0793,0.0487,-0.0371,0.14,-0.0227,-0.111,-0.0818,0.0739,-0.0528,-0.11,0.0762,0.103,0.0835,-0.0585,-0.146,-0.0156,-0.133,-0.0635,-0.0915,0.0946,-0.0489,-0.0361,0.0274,-0.105,0.254,-0.0445,-0.0431,0.0867,0.00211,0.0604,0.0515,0.0557,0.109,0.198,0.0324,0.0208,-0.0292,-0.0884,-0.137,0.00909,-0.139,0.0173,-0.0625,0.0161,-0.0447,-0.0877,-0.143,-0.219,-0.0617,-0.0146,0.16,-0.0687,0.0825,-0.0116,-0.132,-0.167,0.0222,-0.0721};
float f5_1_bias[64] = {-0.148,0.0388,-0.126,-0.0511,0.0685,0.0758,-0.079,0.227,-0.0892,0.153,-0.21,0.0612,-0.00726,-0.167,0.111,0.0538,-0.0308,0.116,-0.0482,0.00589,-0.0648,0.0324,0.0759,-0.256,0.168,-0.0784,-0.0643,0.0608,-0.227,-0.0397,-0.102,-0.11,0.0192,0.0382,0.0168,-0.0489,0.0365,-0.0296,0.126,0.122,0.123,-0.0177,0.135,0.0168,0.0163,-0.0158,0.0569,-0.101,0.0706,-0.0527,-0.00249,0.0404,-0.0405,0.163,0.217,0.142,-0.209,0.0807,-0.134,-0.0869,0.00567,-0.138,0.129,-0.0359};
float f5_2_weight[64*1*3*3] = {0.0338,-0.116,0.428,0.0325,-0.121,0.466,0.271,0.456,0.0968,-0.378,-0.65,0.246,-0.218,-0.595,0.0147,0.943,0.349,-0.0272,0.0589,-0.00858,0.768,-0.546,0.147,0.269,-0.107,0.362,0.13,-0.25,0.491,0.336,-0.261,0.197,0.0672,-0.696,0.303,0.306,-0.529,0.0611,0.278,0.154,0.634,-0.0707,0.507,0.426,-0.274,-0.358,-0.134,0.183,-0.0889,0.35,-0.00791,0.0607,-0.14,0.398,0.354,0.535,-0.999,0.198,-0.25,-0.0151,-0.107,0.498,0.459,0.082,-0.0424,-0.177,1,0.0543,0.0809,0.715,0.48,0.112,0.00295,-0.482,-0.854,0.245,0.0295,-0.725,-0.185,0.71,0.0576,-0.246,0.024,-0.679,0.828,-0.614,0.047,0.969,0.103,0.434,-0.743,-0.491,0.103,0.199,0.0156,0.208,-0.0135,-0.595,0.214,-0.14,-0.29,0.13,0.31,0.542,0.717,-0.424,0.716,0.744,1.02,-1.45,-0.457,0.0585,0.0885,0.0744,0.412,0.319,0.0541,0.524,0.387,1.92,-0.151,0.227,-0.544,-0.0663,-0.0523,0.203,0.237,0.0192,-0.0723,-0.11,-0.241,-0.121,-0.0977,0.256,0.598,0.00723,0.285,-0.708,-0.921,0.149,-0.164,-0.639,-0.123,0.183,0.455,-0.127,0.141,-0.168,0.388,0.545,0.0841,0.61,0.423,0.295,-0.931,-0.617,0.22,0.245,0.0163,0.612,-0.065,-0.299,0.0685,0.182,-0.252,0.0796,0.124,0.661,0.653,-0.608,0.552,0.216,0.247,-0.549,-0.344,-0.921,-0.281,0.319,0.854,0.294,0.157,0.477,0.0232,1.29,0.232,0.285,-0.405,0.0412,-0.402,-0.481,-0.113,0.325,0.09,-0.219,1.04,0.0398,-0.413,0.499,0.0372,0.479,-0.829,-0.11,-0.807,0.333,-0.399,0.208,0.223,0.369,0.237,0.516,0.692,-0.313,0.431,-0.498,0.272,0.437,-0.188,0.763,0.549,-0.185,0.125,0.277,-0.108,0.104,0.188,-0.544,0.237,0.348,-0.268,0.175,0.254,0.143,0.137,0.0105,-0.00535,0.83,-0.608,0.212,-0.0218,0.171,0.0481,0.41,0.41,-0.358,0.21,0.394,0.329,-0.449,-0.381,0.246,-1.09,-0.0226,-0.248,0.542,0.359,0.00606,-0.448,-0.54,1.38,-0.227,-0.833,0.358,0.21,0.304,-1.05,-0.111,0.138,0.243,-0.209,0.177,0.0837,0.111,0.354,0.221,0.682,-1.33,-0.318,-0.0916,0.416,0.774,0.209,0.58,0.00814,0.442,0.429,0.344,-0.498,0.237,0.263,-0.409,0.424,0.135,-0.574,0.142,0.44,0.674,-0.078,-0.0747,-0.0406,0.477,0.84,0.0451,-0.515,0.719,-0.328,0.453,0.839,0.236,0.525,0.174,0.581,-0.757,-0.598,0.432,-1.08,0.215,-0.375,-1.05,0.713,0.346,-0.257,-0.233,-0.224,-0.402,-0.0809,0.192,0.452,-0.0728,-0.0877,0.137,0.532,0.0606,-0.541,-0.729,0.125,0.0655,0.275,-0.205,0.483,-0.518,0.123,0.515,-0.00147,0.299,0.635,0.159,-1.35,-0.71,0.496,0.134,-0.143,0.844,0.247,0.0233,0.214,-0.133,-0.374,0.365,0.25,0.73,-0.135,-0.535,0.221,-0.0223,0.434,0.263,-0.263,-0.762,-0.347,0.0955,0.758,0.39,0.31,-0.16,-0.0795,-0.345,0.166,0.297,-0.182,0.276,-0.315,-1.32,-0.11,1.17,0.127,-0.144,0.135,-0.22,-1.03,0.0582,-0.142,0.344,-0.196,-0.29,-0.519,0.533,-0.427,0.0336,1.05,-0.0283,0.421,0.607,-1.1,0.0571,0.552,-0.671,0.445,0.281,0.0634,0.383,0.411,-0.435,0.102,0.291,-0.458,-0.125,0.291,-0.479,0.0734,0.567,0.217,0.431,0.209,-0.0714,-0.562,0.0299,-0.225,0.684,-0.493,0.441,-0.198,-0.35,-0.0274,0.264,0.111,-0.333,0.752,0.224,0.151,-0.14,-0.225,0.187,0.113,0.298,-0.533,0.0768,0.174,0.0316,-1.3,-0.138,-0.237,-0.585,-0.504,-0.0227,0.0608,0.403,-0.171,-0.253,0.477,0.151,-0.687,0.192,0.68,-0.0364,0.254,0.753,-1.79,-0.274,-0.105,0.696,0.514,0.317,0.487,-0.00695,0.385,-0.088,0.0895,0.188,-0.969,0.00936,0.291,-0.0302,0.227,0.925,0.0252,0.45,0.215,0.0606,-0.665,0.0432,-0.139,0.287,-1.08,0.488,-0.401,-0.608,-0.807,0.511,-0.255,0.889,0.569,-0.00657,0.22,-0.298,-0.759,0.195,0.146,1.19,-0.346,-1.18,0.887,-0.135,-0.883,-0.174,-0.271,-0.529,-0.348,0.055,0.188,0.0885,0.0877,-0.476,0.333,0.207,-0.734,-0.182,0.588,-0.0598,0.381,-0.0361,-0.186,-0.317,0.143,0.707,0.308,0.286,0.51,-0.593,-0.536,0.0937,0.5,0.296,-0.367,0.472,0.587,-0.337,0.216,0.726,-0.0469,0.48,0.188,0.567,-0.42,-0.492,-0.194,0.037,-0.846,0.546,-0.0428,-0.859,-0.965,0.5,-0.141,1.2,-0.0284,0.101,0.0926,-0.291,0.315,0.227,0.27,1.08,-0.0902,-0.632,0.519,0.144};
float f5_2_bias[64] = {0.159,0.608,0.0163,0.427,0.353,-0.0243,0.191,0.11,-0.228,0.782,-0.164,0.247,0.00123,0.00483,-0.104,0.385,0.118,-0.0667,-0.455,0.272,0.271,-0.144,0.319,0.64,0.259,0.358,-0.213,0.221,0.566,0.0235,-0.222,0.332,0.106,-0.502,0.201,-0.0502,-0.112,-0.195,0.801,0.131,-0.139,0.162,0.0863,-0.136,-0.106,-0.496,0.0838,0.404,0.673,0.237,-0.262,-0.399,0.35,0.132,0.0704,-0.413,-0.365,0.23,-0.497,0.325,-0.373,-0.709,0.412,0.275};

